tree
version=v4
num_class=1
num_tree_per_iteration=1
label_index=0
max_feature_idx=7
objective=regression
feature_names=Column_0 Column_1 Column_2 Column_3 Column_4 Column_5 Column_6 Column_7
feature_infos=[0.49990000000000001:15.0001] [1:52] [0.88888888888888884:141.90909090909091] [0.33333333333333331:25.636363636363637] [3:35682] [0.69230769230769229:1243.3333333333333] [32.549999999999997:41.950000000000003] [-124.34999999999999:-114.31]
tree_sizes=2684 2829 2839 2833 2827 2845 2841 2841 2840 2841 2845 2844 2835 2847 2865 2838 2864 2862 2859 2834 2859 2850 2868 2857 2854 2844 2868 2818 2849 2869

Tree=0
num_leaves=31
num_cat=0
split_feature=0 0 0 5 5 2 1 0 6 0 0 0 5 0 5 2 1 5 5 1 1 5 2 0 1 7 7 1 6 0
split_gain=6988.71 1686.21 1293.18 977.385 432.531 319.448 235.12 214.044 188.472 182.27 157.326 138.189 129.992 122.131 114.049 112.576 108.942 106.752 96.7549 86.6441 74.6219 68.3056 67.956 61.6335 59.9682 55.3716 50.6814 45.0464 40.297 34.8049
threshold=5.0387000000000013 3.0679500000000002 6.8672000000000013 2.3489548886254448 2.671038674349933 4.3101408005062494 24.500000000000004 4.0775500000000013 37.815000000000005 2.2210000000000005 7.852450000000001 2.4115000000000006 1.9628175980828908 5.7307500000000013 2.4907552973342448 3.449226804123712 19.500000000000004 2.9005380231986351 2.065373759058589 43.500000000000007 26.500000000000004 2.2906328481453726 5.1186051221335997 5.8308000000000009 41.500000000000007 -122.40499999999999 -118.26499999999999 27.500000000000004 34.525000000000013 8.7395500000000013
decision_type=2 2 2 2 2 2 2 2 2 2 2 2 2 2 2 2 2 2 2 2 2 2 2 2 2 2 2 2 2 2
left_child=1 5 4 6 16 9 -3 19 12 15 20 -7 -8 -6 26 -1 -2 24 -18 22 -4 -13 -5 -20 -9 -21 -11 -15 -23 -12
right_child=2 3 10 7 13 11 8 17 -10 14 29 21 -14 27 -16 -17 18 -19 23 25 -22 28 -24 -25 -26 -27 -28 -29 -30 -31
leaf_value=2.0405687631288161 2.1558599736411375 2.0945018313365229 2.2105021416414852 2.0474118544579003 2.0994046620642437 1.961879457681825 2.2545441709562692 2.0892426552552306 2.0795283240852767 2.1225559014779325 2.2934723094715035 2.043693994763716 2.1668194654867707 2.1410397950488846 2.0327038778370752 1.9814897297846104 2.3293276008777508 2.055796547371648 2.1893908157405639 2.1470309877511444 2.2958198799055269 2.0136317708616707 2.0155083659287123 2.255568014458782 2.1540272791155655 2.0584465939763881 2.0508470150556986 2.1974100577568745 1.9795206760962585 2.3422574193033054
leaf_weight=503 248 567 263 1181 828 1830 264 844 163 277 244 309 469 586 767 899 91 1158 322 94 168 547 1536 250 172 283 153 187 944 365
leaf_count=503 248 567 263 1181 828 1830 264 844 163 277 244 309 469 586 767 899 91 1158 322 94 168 547 1536 250 172 283 153 187 944 365
internal_value=2.07195 2.03789 2.19622 2.07259 2.15739 2.00039 2.1449 2.05251 2.17679 2.02716 2.28999 1.98123 2.19841 2.12609 2.05582 2.00269 2.2124 2.07655 2.23355 2.03561 2.24376 2.0009 2.02938 2.21831 2.10021 2.08053 2.09704 2.15468 1.99203 2.32271
internal_weight=16512 12960 3552 6731 2512 6229 1463 5268 896 2599 1040 3630 733 1601 1197 1402 911 2174 663 3094 431 1800 2717 572 1016 377 430 773 1491 609
internal_count=16512 12960 3552 6731 2512 6229 1463 5268 896 2599 1040 3630 733 1601 1197 1402 911 2174 663 3094 431 1800 2717 572 1016 377 430 773 1491 609
is_linear=0
shrinkage=1


Tree=1
num_leaves=31
num_cat=0
split_feature=0 0 0 5 5 5 6 1 5 7 7 6 0 0 0 6 7 5 6 1 1 5 1 5 1 6 5 1 0 7
split_gain=5660.86 1374.73 1047.48 802.521 356.285 311.56 226.015 201.774 190.491 179.955 141.185 161.455 132.135 127.891 120.894 120.759 127.317 114.413 99.3316 86.9048 86.1673 67.1724 66.8361 60.0289 56.6612 56.5469 48.9506 43.34 41.1263 40.77
threshold=5.0387000000000013 3.1792500000000001 6.8672000000000013 2.4136952392348081 2.5763869593405579 2.1628386478062818 34.455000000000005 19.500000000000004 2.0231950334409352 -117.77499999999999 -121.63499999999998 37.915000000000006 4.1119000000000012 8.4454500000000028 5.8308000000000009 37.935000000000009 -118.24499999999999 3.4421863313388186 37.995000000000012 26.500000000000004 21.500000000000004 2.9291766686969298 44.500000000000007 2.065373759058589 27.500000000000004 34.655000000000008 2.9742256672023193 42.500000000000007 3.9004500000000006 -119.94499999999998
decision_type=2 2 2 2 2 2 2 2 2 2 2 2 2 2 2 2 2 2 2 2 2 2 2 2 2 2 2 2 2 2
left_child=1 5 4 7 20 15 9 -3 28 17 11 -8 22 19 26 16 25 -7 -10 -4 -2 27 -5 -22 -16 -1 -6 -14 -9 -12
right_child=2 3 13 12 14 6 10 8 18 -11 29 -13 21 -15 24 -17 -18 -19 -20 -21 23 -23 -24 -25 -26 -27 -28 -29 -30 -31
leaf_value=0.087967360799125038 0.084744883563069862 0.0075273270675777597 0.13627084435834347 -0.037394195577966964 0.055224303761497145 -0.0061290106675782295 -0.020314656513542483 0.11909943676094384 0.073678149061508172 -0.086429607397013608 -0.095234400489786597 -0.096384055949852387 0.013343390117455334 0.23833999359814073 0.066607736207544802 -0.072530676161452215 -0.038000331273466713 -0.055697130727654469 -0.032532979591576132 0.21304494015289457 0.23644229949906817 -0.014707765010809351 0.01330764887564216 0.14437118854485173 0.12715199083241441 0.014865656862966717 0.011700731284818239 0.075361057274946672 0.18680165968835355 -0.12581960486720284
leaf_weight=172 216 428 368 2372 470 873 506 219 644 928 1109 622 770 426 550 245 343 998 102 246 86 1060 292 401 215 275 574 132 152 718
leaf_count=172 216 428 368 2372 470 873 506 219 644 928 1109 622 770 426 550 245 343 998 102 246 86 1060 292 401 215 275 574 132 152 718
internal_value=-2.37898e-10 -0.0306532 0.111843 0.00350791 0.076901 -0.0617046 -0.0707902 0.0659085 0.0882784 -0.0504262 -0.090079 -0.0622607 -0.0173328 0.19624 0.0534238 -0.0111939 0.00782826 -0.0325689 0.059156 0.16703 0.137314 0.00236077 -0.0318368 0.16063 0.0836234 0.0429943 0.0312947 0.0224191 0.146837 -0.107254
internal_weight=16512 12960 3552 6171 2512 6789 5754 1545 1117 2799 2955 1128 4626 1040 1809 1035 790 1871 746 614 703 1962 2664 487 765 447 1044 902 371 1827
internal_count=16512 12960 3552 6171 2512 6789 5754 1545 1117 2799 2955 1128 4626 1040 1809 1035 790 1871 746 614 703 1962 2664 487 765 447 1044 902 371 1827
is_linear=0
shrinkage=0.1


Tree=2
num_leaves=31
num_cat=0
split_feature=0 0 5 0 5 5 1 6 0 7 6 7 6 5 6 7 5 0 1 1 0 5 0 1 1 2 6 7 7 0
split_gain=4606.33 1288.01 721.16 677.141 256.217 245.319 195.334 184.54 164.703 149.303 124.381 116.119 135.865 106.345 97.5926 102.604 96.0166 92.0651 79.9815 68.8605 68.8183 54.8324 52.2135 52.1721 49.5073 48.3454 48.0067 35.5977 33.9948 31.8028
threshold=5.2771000000000017 3.1913000000000005 2.2982753493904258 7.3930000000000016 2.1628386478062818 2.7472725830126556 19.500000000000004 34.455000000000005 4.1119000000000012 -117.77499999999999 37.815000000000005 -121.63499999999998 38.675000000000004 2.9291766686969298 37.935000000000009 -118.25499999999998 3.133655264613683 6.2770500000000009 21.500000000000004 47.500000000000007 3.8769000000000005 2.2038024706228283 8.7395500000000013 21.500000000000004 28.500000000000004 5.1394605364896222 34.655000000000008 -122.29499999999999 -120.09499999999998 6.3350000000000009
decision_type=2 2 2 2 2 2 2 2 2 2 2 2 2 2 2 2 2 2 2 2 2 2 2 2 2 2 2 2 2 2
left_child=1 4 6 5 14 18 -3 9 19 16 20 12 -9 23 15 26 -6 -7 -2 25 -8 -20 24 -10 -5 -4 -1 -21 -13 -23
right_child=3 2 8 22 7 17 10 11 13 -11 -12 28 -14 -15 -16 -17 -18 -19 21 27 -22 29 -24 -25 -26 -27 -28 -29 -30 -31
leaf_value=0.081305007729403814 0.077459744443647741 0.014198741623154799 -0.014786333684418937 0.14115689651701938 0.0024039445582913562 0.036891070073128161 0.0874636279000756 -0.02973959770019724 -0.00083035359735975957 -0.07771524152956269 0.014850482053921692 -0.084549968332215286 -0.10154468247229483 -0.011367165450199944 -0.064492779615455825 -0.033037896568487796 -0.045151709623591468 0.093377457556539575 0.20803512848085828 0.080922674677438217 0.14887676929408272 0.11233084768176611 0.21944542824813765 0.042477586339609463 0.21111413932791573 -0.042143144671989097 0.013629295562218497 -0.0030494699376259946 -0.11200477480629012 0.16424740052656428
leaf_weight=169 262 367 1141 264 644 857 370 728 402 940 140 1051 413 1288 247 350 1246 435 108 81 360 350 365 903 164 1489 276 134 790 178
leaf_count=169 262 367 1141 264 644 857 370 728 402 940 140 1051 413 1288 247 350 1246 435 108 81 360 350 365 903 164 1489 276 134 790 178
internal_value=1.78013e-11 -0.0248011 0.00646494 0.112482 -0.0552507 0.0838123 0.0753817 -0.0634373 -0.00921179 -0.045146 0.101191 -0.0807962 -0.0557304 0.00901757 -0.00958805 0.0074704 -0.0289476 0.0559093 0.123958 -0.0258264 0.11775 0.143113 0.191659 0.0291367 0.167963 -0.0302747 0.0393309 0.0285865 -0.0963312 0.129833
internal_weight=16512 13529 6675 2983 6854 2190 1237 5812 5438 2830 870 2982 1141 2593 1042 795 1890 1292 898 2845 730 636 793 1305 428 2630 445 215 1841 528
internal_count=16512 13529 6675 2983 6854 2190 1237 5812 5438 2830 870 2982 1141 2593 1042 795 1890 1292 898 2845 730 636 793 1305 428 2630 445 215 1841 528
is_linear=0
shrinkage=0.1


Tree=3
num_leaves=31
num_cat=0
split_feature=0 0 5 0 5 0 5 1 5 6 7 2 0 2 7 6 1 1 0 6 7 5 1 1 1 6 3 5 7 1
split_gain=3741.4 1223.16 530.583 396.509 327.711 170.694 165.283 139.236 141.548 136.642 136.085 128.89 125.346 95.2639 88.1501 78.2605 64.6937 61.9407 56.8182 50.9042 46.4157 38.5751 36.1879 32.7527 32.131 30.0777 29.1961 28.9495 28.2903 26.5276
threshold=5.6042500000000013 3.5488500000000003 2.4136952392348081 7.7055000000000016 2.2352443515477263 2.5205000000000006 2.652973320475732 19.500000000000004 1.9628175980828908 37.935000000000009 -122.31499999999998 3.6193833748516835 4.5301500000000017 4.7252880533656771 -117.145 37.935000000000009 42.500000000000007 16.500000000000004 6.3963500000000009 35.335000000000008 -117.65499999999999 3.2651338971106418 18.500000000000004 21.500000000000004 26.500000000000004 38.545000000000009 1.0435797675926606 3.1424162072895592 -122.43499999999999 49.500000000000007
decision_type=2 2 2 2 2 2 2 2 2 2 2 2 2 2 2 2 2 2 2 2 2 2 2 2 2 2 2 2 2 2
left_child=1 4 7 6 9 11 23 -3 -9 10 -1 -6 16 21 -12 -10 25 -14 27 -13 -19 -7 -5 -2 -20 -4 -25 -8 -18 -15
right_child=3 2 12 22 5 13 18 8 15 -11 14 19 17 29 -16 -17 28 20 24 -21 -22 -23 -24 26 -26 -27 -28 -29 -30 -31
leaf_value=0.13233673354882874 0.097316889872102172 0.01921909605540956 -0.017904028431297039 0.14584605001039119 -0.029049490566850262 -0.0039934940619663377 0.06715282629584321 0.15773247264530826 0.082034422955866881 -0.057765009177729948 0.015541294451628222 -0.064762800959695707 -0.011517436035094079 -0.054861891761663499 -0.064340699907898175 -0.011205258404924756 0.084935991387024068 0.034967923411835293 0.0794621470682223 -0.092835605213312244 -0.028446660139121296 -0.037340934077873464 0.19614317146216401 0.12922905977270585 0.1382409808916911 -0.058342720431709051 0.18526587968780883 0.025051467202511019 0.011389763439573083 -0.0056659850797712297
leaf_weight=89 169 384 2056 207 607 794 390 236 631 349 938 1174 511 1989 162 105 66 1266 372 1436 127 616 463 253 124 202 147 281 252 116
leaf_count=89 169 384 2056 207 607 794 390 236 631 349 938 1174 511 1989 162 105 66 1266 372 1436 127 616 463 253 124 202 147 281 252 116
internal_value=-1.27446e-10 -0.0196591 0.0153947 0.115258 -0.0443959 -0.0539107 0.0900383 0.0702007 0.0903416 -0.00274869 0.0133999 -0.0705553 -0.0011939 -0.0386772 0.00377686 0.0687326 -0.0155745 0.0182622 0.0684926 -0.0802082 0.0291864 -0.0185623 0.180604 0.134228 0.0941569 -0.0215217 0.149823 0.0495217 0.0266541 -0.0521509
internal_weight=16512 14106 5836 2406 8270 6732 1736 1356 972 1538 1189 3217 4480 3515 1100 736 2576 1904 1167 2610 1393 1410 670 569 496 2258 400 671 318 2105
internal_count=16512 14106 5836 2406 8270 6732 1736 1356 972 1538 1189 3217 4480 3515 1100 736 2576 1904 1167 2610 1393 1410 670 569 496 2258 400 671 318 2105
is_linear=0
shrinkage=0.1


Tree=4
num_leaves=31
num_cat=0
split_feature=0 0 5 0 6 5 7 2 0 7 0 7 0 5 6 5 6 7 5 1 6 1 6 6 7 5 7 0 2 4
split_gain=3055.64 819.126 505.434 504.654 196.746 191.485 157.871 157.299 122.451 97.0497 72.2266 71.8344 68.2764 63.8546 51.9859 51.297 50.1703 83.941 45.1431 41.0921 34.5039 34.0972 33.4727 33.1084 47.6867 31.533 30.8967 30.0597 29.8686 26.2569
threshold=5.1326000000000009 2.7820000000000005 2.446986231743232 6.8672000000000013 37.935000000000009 2.5891438608419746 -122.35499999999998 3.8792159595040387 3.8346500000000003 -117.895 7.852450000000001 -122.26499999999999 1.9486000000000001 3.0298305221858191 37.975000000000001 3.0973600929976168 37.935000000000009 -122.24499999999999 2.2906328481453726 21.500000000000004 37.915000000000006 26.500000000000004 37.765000000000008 37.935000000000009 -118.21499999999999 2.065373759058589 -122.35499999999998 6.2770500000000009 4.3645181386446135 139.50000000000003
decision_type=2 2 2 2 2 2 2 2 2 2 2 2 2 2 2 2 2 2 2 2 2 2 2 2 2 2 2 2 2 2
left_child=1 7 4 5 6 19 22 15 16 -8 21 20 -9 27 -13 23 17 -4 -14 -2 -10 -5 -3 24 -1 -21 -6 -7 -20 -12
right_child=3 2 8 10 26 13 9 12 11 -11 29 14 18 -15 -16 -17 -18 -19 28 25 -22 -23 -24 -25 -26 -27 -28 -29 -30 -31
leaf_value=0.024795409785423467 0.06760586409248634 0.089883433148091621 0.05983890622334035 0.089928792088430645 0.013670285006773761 0.050010499141853196 0.054779940081477241 -0.083768022253276647 0.075816464914668424 -0.0014784765797911069 0.058648734709078623 -0.0022924597277465481 -0.027521385375865438 0.021120572821942563 -0.045388444697564416 -0.042494069747577051 -0.058072227931023873 -0.029169584510295766 -0.038905577548720087 0.18107126329342527 0.0051435652596891418 0.14760087816206838 0.17332842683573382 -0.068851113869008468 -0.034192231931766973 0.11008810707227519 -0.04815546901756159 0.095265054653552325 -0.067820060447409972 0.1699242387265221
leaf_weight=378 202 86 111 263 119 603 1303 1169 161 401 22 2234 497 807 320 749 570 2330 464 75 121 168 109 71 215 378 252 194 1553 587
leaf_count=378 202 86 111 263 119 603 1303 1169 161 401 22 2234 497 807 320 749 570 2330 464 75 121 168 109 71 215 378 252 194 1553 587
internal_value=6.42853e-11 -0.0214952 -0.00176682 0.0860916 0.0382818 0.0595538 0.0512945 -0.0529189 -0.017315 0.0415407 0.143735 -0.00240368 -0.0638012 0.0409489 -0.00769211 -0.0245542 -0.0313597 -0.0251221 -0.0545167 0.105115 0.0454923 0.112409 0.136527 -0.00431791 0.00340866 0.12184 -0.0283246 0.061026 -0.0611684 0.165904
internal_weight=16512 13213 8117 3299 2270 2259 1899 5096 5847 1704 1040 2836 3683 1604 2554 1413 3011 2441 2514 655 282 431 195 664 593 453 371 797 2017 609
internal_count=16512 13213 8117 3299 2270 2259 1899 5096 5847 1704 1040 2836 3683 1604 2554 1413 3011 2441 2514 655 282 431 195 664 593 453 371 797 2017 609
is_linear=0
shrinkage=0.1


Tree=5
num_leaves=31
num_cat=0
split_feature=0 0 5 0 5 6 0 1 5 5 0 2 2 1 6 7 7 1 1 6 6 0 7 1 6 0 7 6 6 6
split_gain=2490.76 821.133 414.169 254.762 174.999 154.514 118.842 116.991 112.638 105.984 102.746 88.3319 86.9044 58.6251 50.5896 48.3286 48.2084 41.09 40.0024 39.1909 37.3351 35.2551 30.6271 28.4333 28.3932 24.4804 23.6782 22.0875 20.6947 20.3565
threshold=5.6042500000000013 3.3277500000000004 2.5288691539219195 7.7055000000000016 2.0376051459673437 37.935000000000009 2.2210000000000005 19.500000000000004 2.652973320475732 1.9628175980828908 4.5301500000000017 4.7252880533656771 3.4845502266762112 27.500000000000004 37.815000000000005 -122.38499999999998 -122.40499999999999 16.500000000000004 36.500000000000007 38.735000000000007 37.805000000000007 6.3350000000000009 -117.65499999999999 18.500000000000004 37.955000000000005 2.6715500000000003 -122.35499999999998 35.335000000000008 34.655000000000008 38.57500000000001
decision_type=2 2 2 2 2 2 2 2 2 2 2 2 2 2 2 2 2 2 2 2 2 2 2 2 2 2 2 2 2 2
left_child=1 4 5 8 13 7 12 -3 24 -9 16 15 -6 -1 25 -8 19 -12 21 -4 -18 -10 -19 -5 -2 -15 29 -14 -13 -7
right_child=3 2 10 23 6 26 11 9 18 -11 17 28 27 14 -16 -17 20 22 -20 -21 -22 -23 -24 -25 -26 -27 -28 -29 -30 -31
leaf_value=-0.021548160529060487 0.11653050645450783 0.014744314742814192 0.044541337605115479 0.11561144454233746 -0.020534576956952322 0.042250346560704422 0.04990822844656486 0.12776280153662928 0.034312547833547279 0.058274184934694585 -0.013077944788642291 -0.033378124656155708 -0.058808347589779299 0.022648489979664552 -0.02912829054000143 -0.021865858442625386 -0.017613263670790264 0.026251108125037548 0.12168029548795245 -0.075460684066638362 -0.050287264041018867 0.070577216627820669 -0.027676772076138778 0.16019506842445091 0.030142307840287687 0.079325026742075214 -0.038247066572937582 -0.079680211784856195 -0.054107938293921271 -0.070136534478515394
leaf_weight=438 528 466 182 207 424 83 99 279 589 1029 481 706 923 149 104 1791 2223 1143 86 32 415 492 116 463 41 156 207 1125 1515 20
leaf_count=438 528 466 182 207 424 83 99 279 589 1029 481 706 923 149 104 1791 2223 1143 86 32 415 492 116 463 41 156 207 1125 1515 20
internal_value=-1.04874e-10 -0.0160403 0.00941282 0.0940417 -0.0389104 0.0463857 -0.0444154 0.0577682 0.0738263 0.0730963 -0.00736666 -0.0339964 -0.0617423 0.00387473 0.0311002 -0.0181063 -0.0190504 0.0117839 0.0560399 0.0265971 -0.0227534 0.0508178 0.0212824 0.146421 0.110306 0.0516371 -0.0187519 -0.0702736 -0.0475185 0.0204277
internal_weight=16512 14106 6676 2406 7430 2084 6583 1774 1736 1308 4592 4111 2472 847 409 1890 2852 1740 1167 214 2638 1081 1259 670 569 305 310 2048 2221 103
internal_count=16512 14106 6676 2406 7430 2084 6583 1774 1736 1308 4592 4111 2472 847 409 1890 2852 1740 1167 214 2638 1081 1259 670 569 305 310 2048 2221 103
is_linear=0
shrinkage=0.1


Tree=6
num_leaves=31
num_cat=0
split_feature=0 0 0 5 5 2 1 0 7 6 7 1 1 5 6 5 6 7 6 7 6 0 6 6 7 7 4 0 7 6
split_gain=2037.67 546.73 390.038 310.173 191.713 111.044 97.0045 87.7082 86.6269 115.875 124.22 64.2976 63.2954 62.0604 60.5086 47.4889 41.5235 39.9985 35.2647 41.7853 53.281 31.7323 30.3982 30.129 36.3324 25.404 20.5762 20.1179 19.9281 27.2128
threshold=4.5301500000000017 6.3350000000000009 2.7820000000000005 2.2147445135257553 2.735488224282792 4.2015099382944241 24.500000000000004 8.0125000000000011 -117.79499999999999 37.945000000000007 -122.24499999999999 21.500000000000004 26.500000000000004 2.065373759058589 37.815000000000005 2.8335312747426769 33.655000000000008 -122.40499999999999 37.955000000000005 -121.46499999999999 35.335000000000008 2.2210000000000005 37.995000000000012 37.915000000000006 -122.31499999999998 -117.16499999999998 139.50000000000003 9.1688500000000008 -117.79499999999999 34.595000000000006
decision_type=2 2 2 2 2 2 2 2 2 2 2 2 2 2 2 2 2 2 2 2 2 2 2 2 2 2 2 2 2 2
left_child=2 4 5 6 11 15 -4 12 9 10 -5 -2 -3 -13 17 23 25 -8 19 -6 -21 -7 -15 24 -1 -10 -9 -28 29 -17
right_child=1 7 3 8 18 21 14 26 16 -11 -12 13 -14 22 -16 28 -18 -19 -20 20 -22 -23 -24 -25 -26 -27 27 -29 -30 -31
leaf_value=0.08615838018983292 0.029182972590883666 0.065853684879515692 0.0046005796564662586 0.059274345257579068 0.044448710135203053 -0.065390485423322667 0.14300032723919456 0.037854555426165462 0.011465903761554121 -0.039659265092107675 -0.0074875359585951963 0.14440188562640777 0.1193549167811998 0.071822322860695856 -0.0012804371840526574 -0.023498722231212202 -0.064300624088668684 0.067829401287482993 -0.022893737323300127 0.014222544609899704 -0.064377763955503389 -0.045016708239182461 -0.0039366193083033227 -0.050613833048555538 -0.0041272380709415305 -0.038190460022303419 0.12004862876298528 0.15921226700146995 -0.069208698334062804 -0.061145213609969475
leaf_weight=48 421 561 426 305 433 1539 83 20 150 1043 3232 117 365 748 113 817 478 481 246 1187 93 1519 57 128 624 329 243 285 170 251
leaf_count=48 421 561 426 305 433 1539 83 20 150 1043 3232 117 365 748 113 817 478 481 246 1187 93 1519 57 128 624 329 243 285 170 251
internal_value=9.80567e-11 0.0550674 -0.0224099 -0.00643916 0.0324619 -0.0432194 0.0419856 0.105708 -0.0160856 -0.010368 -0.00173057 0.0615635 0.0869422 0.0763489 0.06551 -0.0251373 -0.0434488 0.0788918 0.0125112 0.0175956 0.00851174 -0.0552702 0.066458 -0.00614796 0.00232173 -0.0226405 0.137417 0.141188 -0.0374082 -0.0323464
internal_weight=16512 4776 11736 6640 3302 5096 1103 1474 5537 4580 3537 1343 926 922 677 2038 957 564 1959 1713 1280 3058 805 800 672 479 548 528 1238 1068
internal_count=16512 4776 11736 6640 3302 5096 1103 1474 5537 4580 3537 1343 926 922 677 2038 957 564 1959 1713 1280 3058 805 800 672 479 548 528 1238 1068
is_linear=0
shrinkage=0.1


Tree=7
num_leaves=31
num_cat=0
split_feature=0 0 5 0 5 6 5 6 7 7 6 7 7 6 7 7 7 7 6 7 1 5 7 7 3 7 7 5 6 6
split_gain=1668.88 501.351 273.26 212.085 141.426 106.533 96.2946 94.8422 118.77 96.7467 95.3874 93.409 72.974 61.1063 63.8268 53.1186 48.0034 45.4378 45.2232 44.3741 43.2063 33.8052 31.9845 29.4612 22.1947 20.9582 17.7127 17.6698 15.2251 14.8062
threshold=5.3736000000000006 3.4883000000000002 2.6829812717770039 7.3930000000000016 2.2352443515477263 37.935000000000009 3.0089663118548242 34.455000000000005 -118.29499999999999 -121.63499999999998 38.675000000000004 -117.16499999999998 -122.31499999999998 37.945000000000007 -122.35499999999998 -117.65499999999999 -117.145 -117.79499999999999 37.915000000000006 -121.28499999999998 21.500000000000004 2.2634687595142249 -119.94499999999998 -117.83499999999999 1.1010313662945244 -122.38499999999998 -122.46499999999999 2.6319530932956439 37.965000000000011 33.895000000000003
decision_type=2 2 2 2 2 2 2 2 2 2 2 2 2 2 2 2 2 2 2 2 2 2 2 2 2 2 2 2 2 2
left_child=1 4 5 6 13 11 20 8 27 10 -9 12 -3 14 -1 -10 -16 18 19 -4 -2 -22 -11 28 -23 -7 -20 -6 -5 -19
right_child=3 2 17 23 7 25 -8 9 15 22 -12 -13 -14 -15 16 -17 -18 29 26 -21 21 24 -24 -25 -26 -27 -28 -29 -30 -31
leaf_value=0.098777330835184016 0.043122061412459813 0.10613855513511226 0.0261252014833495 0.12637323236022438 0.041646519239865093 0.022403610437426585 0.024870520480676551 -0.0087293895125272296 -0.023159113563676809 -0.052500934109129385 -0.066027280906309729 -0.041254565268220598 0.042217280152692195 -0.040184910795159387 0.010896133941605317 -0.052857997760220314 -0.048764583348190484 -0.021592704671854666 0.0092551022665677499 -0.0065738958570699243 0.1321421530439208 0.069841191251232185 -0.078498074663418932 0.07463956719913864 0.13591818866912617 -0.02899476080218686 -0.039249623756494739 0.0039342842399400406 0.037729555796831848 -0.052943672771757683
leaf_weight=73 401 200 557 621 168 112 753 879 1616 1213 434 122 1669 336 921 960 158 364 91 1628 120 671 776 152 55 272 436 477 20 257
leaf_count=73 401 200 557 621 168 112 753 879 1616 1213 434 122 1669 336 921 960 158 364 91 1628 120 671 776 152 55 272 436 477 20 257
internal_value=-3.11723e-11 -0.0143446 0.00830246 0.0704594 -0.030481 0.0342223 0.0531077 -0.036827 -0.0246183 -0.0487363 -0.0276687 0.0435235 0.0490574 -0.00266186 0.00828236 -0.034227 0.0021599 -0.0101673 -0.00458008 0.00176176 0.0701587 0.082974 -0.0626436 0.114221 0.074847 -0.0140036 -0.030874 0.013757 0.123607 -0.0345673
internal_weight=16512 13719 5708 2793 8011 2375 2000 6523 3221 3302 1313 1991 1869 1488 1152 2576 1079 3333 2712 2185 1247 846 1989 793 726 384 527 645 641 621
internal_count=16512 13719 5708 2793 8011 2375 2000 6523 3221 3302 1313 1991 1869 1488 1152 2576 1079 3333 2712 2185 1247 846 1989 793 726 384 527 645 641 621
is_linear=0
shrinkage=0.1


Tree=8
num_leaves=31
num_cat=0
split_feature=0 0 0 5 5 5 1 2 6 7 1 0 6 5 1 6 7 6 7 0 7 5 7 6 7 4 7 5 2 3
split_gain=1369.02 330.799 292.711 236.091 129.972 90.4483 78.3514 75.4246 74.7555 101.079 59.3197 50.204 40.9926 39.364 32.5054 30.6432 30.4406 32.9053 30.2805 29.213 27.1857 26.7176 24.9475 35.5509 44.9019 23.8816 23.2666 20.3934 19.5651 19.1674
threshold=4.6754000000000007 6.3963500000000009 2.6597500000000003 2.065373759058589 2.5219735498882589 2.8079590171801523 19.500000000000004 3.8792159595040387 37.935000000000009 -122.31499999999998 29.500000000000004 9.1688500000000008 37.815000000000005 3.1424162072895592 21.500000000000004 37.935000000000009 -117.79499999999999 37.875000000000007 -118.01499999999999 1.9486000000000001 -122.40499999999999 2.1628386478062818 -118.27499999999999 35.335000000000008 -121.87499999999999 374.50000000000006 -122.38499999999998 2.6585924622132824 4.3645181386446135 1.0062015652943102
decision_type=2 2 2 2 2 2 2 2 2 2 2 2 2 2 2 2 2 2 2 2 2 2 2 2 2 2 2 2 2 2
left_child=2 4 7 6 14 8 -4 22 9 -5 11 27 20 15 25 18 17 -7 -6 -9 -8 -16 23 -1 -25 -2 -17 29 -21 -3
right_child=1 10 3 5 13 16 12 19 -10 -11 -12 -13 -14 -15 21 26 -18 -19 -20 28 -22 -23 -24 24 -26 -27 -28 -29 -30 -31
leaf_value=0.018320780938798142 -0.062067918491590282 0.040520572996869383 -0.0034393759694085605 0.085681367372335115 0.04395056819805563 -0.013422643776320973 0.12957977648270694 -0.058116117887181698 -0.02576125016976491 0.0038847430229403861 0.11409255839402895 0.12325978777490748 -0.0022190983766263508 -0.00056914511046961887 0.11646184432711063 0.05413171223869237 -0.0422690213514193 -0.042265943298956513 0.0097365852496760132 -0.021186165268686611 0.064255025487100326 0.065287090225941161 -0.030898782138328057 0.0072032654903338338 -0.068999944284829931 0.04529119857573552 -0.024657974133202643 0.051827719170369407 -0.043836401352586082 0.11582117089916261
leaf_weight=352 23 49 248 162 829 2364 74 1169 808 2240 533 156 83 812 143 48 648 475 376 503 458 356 661 167 144 209 171 565 1577 109
leaf_count=352 23 49 248 162 829 2364 74 1169 808 2240 533 156 83 812 143 48 648 475 376 503 458 356 661 167 144 209 171 565 1577 109
internal_value=4.41874e-11 0.0479294 -0.0172985 -0.00521827 0.0289687 -0.011562 0.0440099 -0.0372693 0.000550503 0.00940142 0.0877709 0.0718102 0.0631439 0.0170016 0.0655739 0.0270209 -0.0227123 -0.0182485 0.0332747 -0.0454676 0.0733416 0.0799524 -0.0171512 -0.00344515 -0.0280805 0.0346478 -0.007389 0.0607091 -0.038359 0.0924685
internal_weight=16512 4379 12133 7560 2967 6697 863 4573 3210 2402 1412 879 615 2236 731 1424 3487 2839 1205 3249 532 499 1324 663 311 232 219 723 2080 158
internal_count=16512 4379 12133 7560 2967 6697 863 4573 3210 2402 1412 879 615 2236 731 1424 3487 2839 1205 3249 532 499 1324 663 311 232 219 723 2080 158
is_linear=0
shrinkage=0.1


Tree=9
num_leaves=31
num_cat=0
split_feature=0 0 5 5 0 6 7 7 6 5 1 6 1 5 5 7 6 7 7 6 7 7 7 6 7 6 6 7 7 6
split_gain=1123.85 384.957 184.501 122.521 109.82 75.5638 88.1873 84.4937 74.5808 66.1998 63.3556 60.413 60.1127 57.7528 47.998 47.1812 39.1583 38.1635 32.5514 31.2099 35.4117 30.5102 28.4275 26.7035 25.9756 37.5104 21.2437 19.243 18.3355 17.0334
threshold=5.6042500000000013 3.6530500000000004 2.3793126239259754 2.2982753493904258 7.7055000000000016 34.455000000000005 -118.30499999999999 -121.675 38.675000000000004 2.9742256672023193 16.500000000000004 38.515000000000008 27.500000000000004 3.0089663118548242 2.065373759058589 -117.675 37.915000000000006 -122.21499999999999 -122.35499999999998 38.155000000000008 -117.83499999999999 -120.09499999999998 -118.26499999999999 37.615000000000002 -121.48499999999999 34.525000000000013 33.935000000000009 -118.00499999999998 -122.40499999999999 37.615000000000002
decision_type=2 2 2 2 2 2 2 2 2 2 2 2 2 2 2 2 2 2 2 2 2 2 2 2 2 2 2 2 2 2
left_child=1 3 10 11 13 6 -5 8 -7 16 -3 12 22 19 -12 -8 17 -4 -14 20 23 -9 -1 -2 -11 -26 -22 -6 -18 -16
right_child=4 2 9 5 27 7 15 21 -10 24 14 -13 18 -15 29 -17 28 -19 -20 -21 26 -23 -24 -25 25 -27 -28 -29 -30 -31
leaf_value=0.005236272720249598 0.08649447553442223 0.00080302288771559637 0.068223488455017411 0.016149180761216946 0.10736333359574596 -0.0046395756450326323 -0.017043815137674195 -0.04274080397959746 -0.055492188936481217 0.0084621371205288697 0.088255367800254961 -0.044099202597172094 0.076045524809848178 0.026291981475547573 0.054019415664336559 -0.043891621096945353 0.020793844551707692 0.015031096174205628 0.017545513550725741 -0.01160568941044263 0.041943768245277943 -0.067206230382189938 -0.032883155142068035 0.045046820293703098 -0.010444434865081917 -0.048570795399793913 -0.055473549262835431 0.068264212404998637 -0.025084692175306185 0.016659808549165881
leaf_weight=401 643 236 147 579 502 911 1827 1223 422 468 344 278 110 649 329 1020 117 1636 703 52 161 874 382 205 1238 326 26 168 341 194
leaf_count=401 643 236 147 579 502 911 1827 1223 422 468 344 278 110 649 329 1020 117 1636 703 52 161 874 382 205 1238 326 26 168 341 194
internal_value=1.41566e-11 -0.0107746 0.0102769 -0.0237382 0.0631696 -0.0299318 -0.0194274 -0.0404241 -0.0207385 0.000864666 0.0467396 -0.00107881 0.00641471 0.049897 0.0592436 -0.0266626 0.012717 0.0194166 0.0254606 0.0639905 0.0677886 -0.0529376 -0.0133609 0.0764747 -0.0122067 -0.0183915 0.0283991 0.0975594 -0.0133646 0.0401614
internal_weight=16512 14106 5376 8730 2406 6856 3426 3430 1333 4273 1103 1874 1596 1736 867 2847 2241 1783 813 1087 1035 2097 783 848 2032 1564 187 670 458 523
internal_count=16512 14106 5376 8730 2406 6856 3426 3430 1333 4273 1103 1874 1596 1736 867 2847 2241 1783 813 1087 1035 2097 783 848 2032 1564 187 670 458 523
is_linear=0
shrinkage=0.1


Tree=10
num_leaves=31
num_cat=0
split_feature=0 0 0 5 5 7 6 7 7 6 2 1 1 7 6 7 6 0 1 3 3 6 7 6 7 6 7 4 0 6
split_gain=923.584 240.273 188.09 166.321 94.1595 67.8126 86.3004 113.7 110.968 80.5737 53.3155 49.7634 44.9966 32.8099 36.1707 34.9314 31.5779 27.438 27.3939 27.9006 25.5197 24.4782 30.5852 22.8804 19.3642 19.1899 17.898 17.8715 20.2195 16.8517
threshold=4.5301500000000017 6.3350000000000009 2.5205000000000006 2.065373759058589 2.5163636904584812 -122.38499999999998 34.455000000000005 -119.94499999999998 -118.30499999999999 38.32500000000001 3.365443569821378 24.500000000000004 21.500000000000004 -122.21499999999999 37.615000000000002 -117.77499999999999 37.815000000000005 8.7395500000000013 21.500000000000004 1.042375777656777 0.9643231506439055 35.335000000000008 -118.35499999999998 37.745000000000012 -119.84499999999998 34.045000000000009 -116.40499999999999 274.50000000000006 8.2050500000000017 38.705000000000005
decision_type=2 2 2 2 2 2 2 2 2 2 2 2 2 2 2 2 2 2 2 2 2 2 2 2 2 2 2 2 2 2
left_child=2 4 10 11 18 9 8 -8 -7 23 25 -4 17 -6 15 -15 20 -3 -2 -20 -13 22 -12 -5 -23 -1 -24 -14 -29 -11
right_child=1 12 3 5 13 6 7 -9 -10 29 21 16 27 14 -16 -17 -18 -19 19 -21 -22 24 26 -25 -26 -27 -28 28 -30 -31
leaf_value=-0.028588181121588393 0.025132052200955737 0.039572636974602338 0.0049787432545218523 0.022450073799358081 0.047819743472822446 0.029081262062385479 -0.017797219847730011 -0.069213843727291419 -0.013521908767361946 0.0066321523115834878 0.010804019925317595 -0.04464368530149971 0.018473466571518465 0.021398831091362622 -0.020740236856165047 -0.011251850059087833 -0.0028531417413073228 0.09217536507640034 0.044502766886575812 0.089918008195296967 0.068158979746087603 -0.039964366597859013 -0.030423106983860044 0.076002804642311572 -0.064598296108530268 0.010447517893112159 -0.074520795560921685 0.076833763753952566 0.10961097702257286 -0.045130838435365792
leaf_weight=199 264 495 358 136 237 786 2263 531 2752 117 175 21 38 1478 352 421 86 124 310 240 446 1370 1309 193 416 343 99 523 294 136
leaf_count=199 264 495 358 136 237 786 2263 531 2752 117 175 21 38 1478 352 421 86 124 310 240 446 1370 1309 193 416 343 99 523 294 136
internal_value=-1.48983e-11 0.0370737 -0.0150873 -0.00613722 0.0220879 -0.0114293 -0.0144318 -0.027569 -0.00405721 0.021237 -0.0329942 0.0340268 0.0706444 0.0124289 0.00870275 0.0141603 0.0528319 0.0501102 0.0516106 0.0643203 0.0630865 -0.0376773 -0.0286233 0.0538655 -0.0457022 -0.00388478 -0.0335237 0.0855107 0.0886287 -0.021193
internal_weight=16512 4776 11736 7825 3302 6914 6332 2794 3538 582 3911 911 1474 2488 2251 1899 553 619 814 550 467 3369 1583 329 1786 542 1408 855 817 253
internal_count=16512 4776 11736 7825 3302 6914 6332 2794 3538 582 3911 911 1474 2488 2251 1899 553 619 814 550 467 3369 1583 329 1786 542 1408 855 817 253
is_linear=0
shrinkage=0.1


Tree=11
num_leaves=31
num_cat=0
split_feature=0 0 5 5 0 1 6 7 7 1 5 2 1 6 1 7 0 1 5 0 7 6 3 6 6 7 7 7 6 3
split_gain=757.379 244.67 120.763 120.6 86.0719 47.7281 47.5493 84.7482 73.0879 45.0731 44.8595 42.0135 40.8485 42.1331 40.1785 33.7198 32.376 30.9132 30.5849 23.5687 22.5431 49.0202 19.6536 19.58 17.8631 21.716 17.2213 16.7426 16.1967 16.0175
threshold=4.125700000000001 6.2770500000000009 2.446986231743232 2.0231950334409352 2.3756000000000004 51.500000000000007 34.455000000000005 -119.94499999999998 -117.60499999999998 16.500000000000004 3.133655264613683 3.0522493994321906 27.500000000000004 37.815000000000005 29.500000000000004 -122.40499999999999 9.1688500000000008 47.500000000000007 2.065373759058589 3.4105000000000003 -118.15499999999999 34.965000000000011 0.96895480831013081 35.335000000000008 37.615000000000002 -122.40499999999999 -118.36499999999999 -121.60499999999998 37.615000000000002 1.0097363099187919
decision_type=2 2 2 2 2 2 2 2 2 2 2 2 2 2 2 2 2 2 2 2 2 2 2 2 2 2 2 2 2 2
left_child=3 2 9 12 11 6 8 -8 -6 -2 17 -5 20 19 16 -7 29 22 -11 -14 21 -1 -4 26 -16 -26 -13 -23 -20 -3
right_child=1 14 10 4 5 15 7 -9 -10 18 -12 23 13 -15 24 -17 -18 -19 28 -21 -22 27 -24 -25 25 -27 -28 -29 -30 -31
leaf_value=0.065201441748624939 0.0074331170561687272 0.025235484151373472 -0.0089452865057221675 0.0062230831774120988 0.0028723397483781687 0.06766314029778836 -0.016446006990497794 -0.060427984109205184 -0.031332712659527362 0.089959262154297906 -0.0076185985113850219 0.0063036550272954628 0.034941130696654492 -0.018256729858147348 0.092828825443456775 0.0015127556858516415 0.091979939135937744 0.069931355957555313 0.057581207250932201 0.087947110478477239 -0.028256753998873237 0.0044904748200560399 0.01764538419016683 -0.045368973223385033 0.10463327477375667 0.016979795930858115 -0.032240530120006744 -0.052204099632557725 0.02012549579355442 0.053917346904478948
leaf_weight=117 219 329 328 242 2222 112 2379 537 869 224 1228 128 303 117 453 247 156 102 374 116 225 161 1822 1432 45 76 1228 77 167 477
leaf_count=117 219 329 328 242 2222 112 2379 537 869 224 1228 128 303 117 453 247 156 102 374 116 225 161 1822 1432 45 76 1228 77 167 477
internal_value=7.35452e-12 0.0283481 0.0165027 -0.0161804 -0.0198718 -0.0132687 -0.0153855 -0.0245456 -0.00674403 0.047434 0.00775667 -0.0337448 0.0148988 0.0348004 0.0627737 0.0221502 0.0502806 0.0161407 0.0588852 0.0496158 -0.00349302 0.0122023 0.0135888 -0.0372141 0.0837115 0.0495782 -0.0286021 -0.0138519 0.0460191 0.0422097
internal_weight=16512 6000 4464 10512 9396 6366 6007 2916 3091 984 3480 3030 1116 536 1536 359 962 2252 765 419 580 355 2150 2788 574 121 1356 238 541 806
internal_count=16512 6000 4464 10512 9396 6366 6007 2916 3091 984 3480 3030 1116 536 1536 359 962 2252 765 419 580 355 2150 2788 574 121 1356 238 541 806
is_linear=0
shrinkage=0.1


Tree=12
num_leaves=31
num_cat=0
split_feature=0 0 5 6 0 7 6 5 6 2 6 7 5 7 0 7 6 7 6 7 3 7 6 0 5 4 0 7 6 6
split_gain=628.022 188.659 135.18 85.2045 83.168 77.9023 63.9594 47.1553 37.7498 36.7445 29.2329 36.3613 28.3133 24.2546 23.449 21.3739 19.9904 18.918 20.542 18.615 17.7065 17.3795 30.3593 16.8913 17.851 16.8431 16.5495 14.9919 15.9162 14.8967
threshold=5.2771000000000017 2.8762500000000002 2.8079590171801523 37.945000000000007 7.2638000000000007 -117.895 34.175000000000004 2.9432978723404259 33.695000000000007 4.2015099382944241 37.955000000000005 -117.85499999999998 3.4159362260510568 -122.38499999999998 1.6881000000000002 -122.40499999999999 33.605000000000011 -122.38499999999998 38.735000000000007 -117.18499999999999 1.1022872587770289 -117.75499999999998 34.525000000000013 1.9486000000000001 2.4206262209680927 170.50000000000003 9.1688500000000008 -118.05499999999999 34.135000000000012 38.765000000000008
decision_type=2 2 2 2 2 2 2 2 2 2 2 2 2 2 2 2 2 2 2 2 2 2 2 2 2 2 2 2 2 2
left_child=1 9 3 5 7 6 -3 10 -7 12 11 20 14 29 -1 -12 -13 18 -5 -16 -2 22 -15 -11 -25 -6 27 28 -27 -4
right_child=4 2 13 17 25 8 -8 -9 -10 23 15 16 -14 21 19 -17 -18 -19 -20 -21 -22 -23 -24 24 -26 26 -28 -29 -30 -31
leaf_value=-0.026646653261129402 0.052464754616758785 0.045814399552512784 0.027100303284553547 0.026014063643021564 -0.0010713790707728443 0.0089775659967826528 0.014631148291043528 0.013782279716811256 -0.037132417174950819 -0.041518881166365845 0.063113992067519581 0.038400729115587673 -0.026760738146588539 -0.0022886517111952625 0.010831147373854341 -0.03102220522845725 -0.023228086830235757 -0.025743370515193126 -0.041684189093772507 -0.030498430131215927 0.094851156383489094 -0.029251959848573955 -0.022939635318267967 -0.011416645679147422 -0.030948467718431134 0.10729892934146135 0.090432212736334963 0.034009110751665302 0.059639829374393639 -0.045150312431382414
leaf_weight=318 771 1114 211 169 34 453 1606 913 292 939 34 123 896 1548 768 83 92 591 61 127 113 711 1318 641 1733 92 281 153 294 33
leaf_count=318 771 1114 211 169 34 453 1606 913 292 939 34 123 896 1548 768 83 92 591 61 127 113 711 1318 641 1733 92 281 153 294 33
internal_value=7.74311e-12 -0.00915759 0.000499708 0.0126921 0.0415331 0.0195553 0.0274025 0.0309578 -0.00909507 -0.0235972 0.0438535 0.0489125 -0.0132794 -0.0131764 -0.0033212 -0.00366639 0.0120293 -0.0162737 0.00805931 0.0049665 0.0578829 -0.0152573 -0.0117855 -0.0301654 -0.0256747 0.067897 0.0707567 0.0604991 0.070999 0.0173287
internal_weight=16512 13529 8107 4286 2983 3465 2720 2129 745 5422 1216 1099 2109 3821 1213 117 215 821 230 895 884 3577 2866 3313 2374 854 820 539 386 244
internal_count=16512 13529 8107 4286 2983 3465 2720 2129 745 5422 1216 1099 2109 3821 1213 117 215 821 230 895 884 3577 2866 3313 2374 854 820 539 386 244
is_linear=0
shrinkage=0.1


Tree=13
num_leaves=31
num_cat=0
split_feature=0 0 5 6 7 5 7 6 1 0 1 0 2 1 4 7 6 6 7 6 6 6 5 4 6 6 7 6 7 6
split_gain=514.749 139.131 108.172 97.78 104.855 58.8161 57.8405 81.9264 41.1009 33.2041 28.1324 27.2044 25.9799 22.5931 21.397 20.2445 53.8471 18.323 30.4363 53.2814 18.2612 17.5021 16.5862 17.3636 16.1402 15.4599 14.8667 14.6297 15.8987 14.5023
threshold=4.405050000000001 5.8308000000000009 2.5949646725452551 37.895000000000003 -122.31499999999998 2.2820667453403218 -117.145 34.455000000000005 26.500000000000004 2.5894500000000007 38.500000000000007 8.7395500000000013 3.0522493994321906 16.500000000000004 170.50000000000003 -121.56499999999998 34.655000000000008 38.435000000000009 -121.36499999999999 34.655000000000008 37.765000000000008 37.615000000000002 2.5219735498882589 565.50000000000011 39.355000000000011 37.805000000000007 -122.40499999999999 34.655000000000008 -118.36499999999999 37.595000000000006
decision_type=2 2 2 2 2 2 2 2 2 2 2 2 2 2 2 2 2 2 2 2 2 2 2 2 2 2 2 2 2 2
left_child=2 5 3 4 20 13 7 -6 11 12 15 22 -4 -2 -10 21 -17 18 29 -20 -1 -7 23 -3 -5 -16 -27 28 -14 -11
right_child=1 8 9 24 6 10 -8 -9 14 17 -12 -13 27 -15 25 16 -18 -19 19 -21 -22 -23 -24 -25 -26 26 -28 -29 -30 -31
leaf_value=0.043072746124128071 0.0071653319891579088 -0.0080839250609278691 0.0055686072938179029 -0.017514879474727286 0.024803616389653976 0.033540039698955804 -0.032147038340326249 -0.011963449811058043 -0.021724197602477568 0.025478859228850077 0.034685423236698154 0.071188904061307054 0.016844504652033142 0.061778384712816714 0.071418718826889688 0.0063545501837474795 -0.039154011619473822 -0.032953502985533428 -0.0090999901785202512 -0.04067635078535263 0.10043167260591873 0.0015001858413909016 0.023229973378701977 0.07734288062738337 -0.045473296768973805 0.090951576303033271 0.014106100037233116 -0.038636066048304642 -0.026440514919093189 -0.0037557096726419503
leaf_weight=98 101 30 214 911 1529 343 369 1004 29 261 324 172 91 303 715 1269 327 452 2443 684 128 339 902 115 267 34 97 1219 1257 485
leaf_count=98 101 30 214 911 1529 343 369 1004 29 261 324 172 91 303 715 1269 327 452 2443 684 128 339 902 115 267 34 97 1219 1257 485
internal_value=8.04697e-12 0.0264115 -0.0118033 0.000703699 0.00995126 0.0126261 0.00484189 0.0102303 0.046201 -0.0193821 0.00711431 0.0343313 -0.0279067 0.0481251 0.0627372 0.00319287 -0.00296957 -0.0139007 -0.0116771 -0.016007 0.0755592 0.0176141 0.0282764 0.0596684 -0.0238518 0.0656324 0.0340507 -0.0306974 -0.0235185 0.00647247
internal_weight=16512 5100 11412 4306 3128 3006 2902 2533 2094 7106 2602 1219 2781 404 875 2278 1596 4325 3873 3127 226 682 1047 145 1178 846 131 2567 1348 746
internal_count=16512 5100 11412 4306 3128 3006 2902 2533 2094 7106 2602 1219 2781 404 875 2278 1596 4325 3873 3127 226 682 1047 145 1178 846 131 2567 1348 746
is_linear=0
shrinkage=0.1


Tree=14
num_leaves=31
num_cat=0
split_feature=0 0 5 5 6 7 7 6 6 1 1 7 0 5 5 6 6 7 6 7 5 7 6 4 7 3 6 7 6 6
split_gain=422.116 140.465 73.1092 70.1456 86.7437 82.026 46.9968 103.455 34.4473 33.2918 29.5795 26.3721 22.5856 21.4063 19.5127 24.1771 18.9086 17.9153 28.9399 31.312 22.8239 19.6672 22.3744 17.3315 15.3569 15.8966 14.6168 13.9849 13.2965 13.1933
threshold=4.0612500000000002 5.8308000000000009 2.446986231743232 2.8941056667066016 37.925000000000004 -122.31499999999998 -117.77499999999999 34.595000000000006 33.565000000000005 26.500000000000004 16.500000000000004 -122.24499999999999 9.1688500000000008 2.065373759058589 3.226178258466883 34.655000000000008 39.355000000000011 -122.38499999999998 34.885000000000012 -117.79499999999999 3.4421863313388186 -121.56499999999998 37.645000000000003 170.50000000000003 -122.02499999999999 1.0687599090911248 38.375000000000007 -122.38499999999998 37.615000000000002 37.645000000000003
decision_type=2 2 2 2 2 2 2 2 2 2 2 2 2 2 2 2 2 2 2 2 2 2 2 2 2 2 2 2 2 2
left_child=3 2 10 4 5 -1 7 -7 -8 12 -2 28 24 -12 15 -13 27 26 19 20 -19 22 -20 -11 29 -26 -5 -6 -4 -3
right_child=1 9 11 17 16 6 8 -9 -10 23 13 14 -14 -15 -16 -17 -18 18 21 -21 -22 -23 -24 -25 25 -27 -28 -29 -30 -31
leaf_value=0.059634148441327854 0.00080659613733999173 0.093583901376555811 0.077206562824693389 0.032621080237785698 0.0029072411301180054 0.02495535757667347 -0.0024233150661912683 -0.013805304403520353 -0.039922528044429771 -0.019551776619306929 0.068686834862864199 0.013720063351947932 0.068840026989472003 0.032074082093544863 -0.013057771405963665 -0.0085568636756364856 -0.042186936528309502 0.0042758643447884685 0.0090336165778959806 -0.033264741514342083 -0.017933777861042624 -0.041459256327641941 -0.033913180423389859 0.059069179986108444 0.014553954440158888 0.045698265274059721 -0.024621041734261731 -0.023565416272541009 0.021198613580892121 0.030432340369995248
leaf_weight=240 212 58 51 108 254 1411 542 1345 447 29 228 1234 139 533 857 805 439 709 195 829 1332 1068 321 846 734 211 76 931 251 77
leaf_count=240 212 58 51 108 254 1411 542 1345 447 29 228 1234 139 533 857 805 439 709 195 829 1332 1068 321 846 734 211 76 931 251 77
internal_value=5.42328e-12 0.0204481 0.00983871 -0.012502 -0.00497839 0.00296042 -0.000671544 0.00603914 -0.0193719 0.0415809 0.0338408 0.00253601 0.0308982 0.0430435 -0.000396487 0.0049251 -0.0244588 -0.0216007 -0.0228639 -0.0168755 -0.0102186 -0.0337141 -0.0176833 0.0564635 0.0260149 0.0215079 0.0089776 -0.0178911 0.0306569 0.0575641
internal_weight=16512 6265 4171 10247 5609 3985 3745 2756 989 2094 973 3198 1219 761 2896 2039 1624 4638 4454 2870 2041 1584 516 875 1080 945 184 1185 302 135
internal_count=16512 6265 4171 10247 5609 3985 3745 2756 989 2094 973 3198 1219 761 2896 2039 1624 4638 4454 2870 2041 1584 516 875 1080 945 184 1185 302 135
is_linear=0
shrinkage=0.1


Tree=15
num_leaves=31
num_cat=0
split_feature=0 0 5 5 0 5 1 7 6 6 7 7 1 7 6 0 6 1 2 6 6 7 6 5 5 7 5 7 3 4
split_gain=344.624 123.993 72.8029 54.5074 36.5331 35.3832 28.387 26.1033 47.8409 41.4736 50.0387 42.0193 24.6342 24.3202 36.64 22.3016 20.1446 19.7887 19.4686 19.1296 17.3617 15.4033 33.1469 14.2179 14.2073 14.0475 13.3223 12.0772 11.8858 10.975
threshold=3.9221500000000007 6.3963500000000009 2.3578464509898605 2.0231950334409352 2.2210000000000005 3.133655264613683 16.500000000000004 -122.38499999999998 38.32500000000001 34.455000000000005 -118.30499999999999 -120.09499999999998 27.500000000000004 -122.24499999999999 34.655000000000008 1.7274500000000004 37.805000000000007 21.500000000000004 3.3133866958124387 37.595000000000006 37.815000000000005 -118.33499999999999 34.155000000000008 2.1496330815790889 1.6125326273398466 -122.40499999999999 1.5104297674263547 -117.63499999999998 1.037330713817944 274.50000000000006
decision_type=2 2 2 2 2 2 2 2 2 2 2 2 2 2 2 2 2 2 2 2 2 2 2 2 2 2 2 2 2 2
left_child=3 2 6 12 18 13 -2 8 -6 10 -9 -11 21 19 -15 -14 23 28 -5 -4 24 22 -1 -8 -17 -18 -23 -7 -3 -19
right_child=1 17 5 4 7 27 16 9 -10 11 -12 -13 15 14 -16 20 25 29 -20 -21 -22 26 -24 -25 -26 -27 -28 -29 -30 -31
leaf_value=0.07909927335900388 0.0041419374776901123 0.017567593374909544 0.08600536819862864 -0.0022967085123563073 0.045337873533082482 -0.0035124812885920197 0.067921484006198948 0.020293197305281868 -0.017565955181176273 -0.014806063382555183 -0.011116910870731907 -0.044946421659963869 -0.030082535845715377 0.017515151612411767 -0.0067329264989555593 0.092690940253436563 0.05665621111125109 -0.0010931229697806494 -0.028379241954370485 0.025107569090304562 -0.0072809411578678672 -0.072742654156425723 -0.0056321654448523847 0.036709620479981157 0.035141867592881453 -0.014035244731999498 -0.012764972373843192 -0.02749084930227131 0.046305994459252105 0.056135840388621398
leaf_weight=56 217 341 62 330 226 1214 311 640 260 2019 2444 600 63 1573 1032 50 42 35 2155 307 84 46 263 275 302 85 190 254 249 787
leaf_count=56 217 341 62 330 226 1214 311 640 260 2019 2444 600 63 1573 1032 50 42 35 2155 307 84 46 263 275 302 85 190 254 249 787
internal_value=4.39735e-11 0.0172998 0.0103687 -0.0120643 -0.0146737 0.00504198 0.0358109 -0.0105613 0.0116856 -0.0124572 -0.0045986 -0.0217111 0.00940928 0.0113125 0.007909 0.0255322 0.0454492 0.0436695 -0.0249156 0.0353397 0.0335683 -0.00508686 0.00924232 0.0532743 0.0433165 0.00934303 -0.0244555 -0.00766133 0.0296962 0.0536991
internal_weight=16512 6784 5372 9728 8674 4442 930 6189 486 5703 3084 2619 1054 2974 2605 499 713 1412 2485 369 436 555 319 586 352 127 236 1468 590 822
internal_count=16512 6784 5372 9728 8674 4442 930 6189 486 5703 3084 2619 1054 2974 2605 499 713 1412 2485 369 436 555 319 586 352 127 236 1468 590 822
is_linear=0
shrinkage=0.1


Tree=16
num_leaves=31
num_cat=0
split_feature=0 5 6 7 7 6 0 6 5 6 7 6 7 4 5 7 6 6 7 7 6 7 7 5 6 2 6 7 2 7
split_gain=286.904 81.8161 88.85 85.5325 59.0503 105.669 53.7647 43.4541 33.3185 22.4578 25.1667 19.6965 18.8937 18.2176 16.7781 16.5651 16.1275 15.519 15.425 13.9059 13.8289 38.0093 16.5926 15.3219 13.8547 12.3844 11.7154 11.301 12.1287 10.8034
threshold=5.0116000000000005 3.1100458715596333 37.925000000000004 -122.31499999999998 -117.77499999999999 34.525000000000013 7.2638000000000007 33.565000000000005 2.2634687595142249 37.955000000000005 -117.86499999999999 39.355000000000011 -122.38499999999998 358.50000000000006 3.0228140180430265 -117.79499999999999 33.935000000000009 37.765000000000008 -122.40499999999999 -122.38499999999998 34.525000000000013 -121.48499999999999 -119.21499999999999 4.0313335151349881 37.895000000000003 3.8330595473270859 38.705000000000005 -117.71499999999999 5.5003382949932353 -121.22499999999998
decision_type=2 2 2 2 2 2 2 2 2 2 2 2 2 2 2 2 2 2 2 2 2 2 2 2 2 2 2 2 2 2
left_child=1 2 3 17 5 -5 8 -6 13 10 14 12 26 -2 -10 20 -12 19 -11 -1 22 24 -3 -24 -22 -19 -4 28 -8 -14
right_child=6 15 11 4 7 -7 27 -9 9 18 16 -13 29 -15 -16 -17 -18 25 -20 -21 21 -23 23 -25 -26 -27 -28 -29 -30 -31
leaf_value=0.022216552929044356 -0.028118580093400347 0.063999243813256432 0.018186648623657264 0.021709155772261825 -0.00032364735000508182 -0.0091502210849655364 -0.025794024504721166 -0.034800836712928211 0.031560228126973573 0.031599222168636823 0.0085576154523870993 -0.036040594536202529 -0.024196043027004305 0.058121320319839999 0.011025942345045617 -0.031320278103336624 -0.032166848998054748 0.032378933918580675 -0.025985495155173295 0.094124732935620903 0.0056947608447792319 -0.035513026288114244 -0.0039561653790452936 -0.021864344652210242 -0.026516287306276837 0.088839603175760298 -0.022449491334584903 0.015415716337242931 0.053135042548829836 -0.0030626640931052406
leaf_weight=203 27 30 257 2389 821 2072 20 659 1031 60 395 505 991 264 648 779 129 57 207 31 455 909 1228 782 189 122 98 101 733 320
leaf_count=203 27 30 257 2389 821 2072 20 659 1031 60 395 505 991 264 648 779 129 57 207 31 455 909 1228 782 189 122 98 101 733 320
internal_value=-3.71925e-11 -0.00697876 -0.00127491 0.00469253 0.00163347 0.00737591 0.0248977 -0.0156753 0.0181151 0.0143446 0.0176642 -0.0187402 -0.013496 0.0501197 0.0236351 -0.0181007 -0.00146806 0.048697 -0.0130451 0.0317429 -0.0152346 -0.022345 -0.00982162 -0.0109234 -0.00375848 0.0708605 0.00696878 0.0468256 0.0510387 -0.0190376
internal_weight=16512 12897 8525 6354 5941 4461 3615 1480 2761 2470 2203 2171 1666 291 1679 4372 524 413 267 234 3593 1553 2040 2010 644 179 355 854 753 1311
internal_count=16512 12897 8525 6354 5941 4461 3615 1480 2761 2470 2203 2171 1666 291 1679 4372 524 413 267 234 3593 1553 2040 2010 644 179 355 854 753 1311
is_linear=0
shrinkage=0.1


Tree=17
num_leaves=31
num_cat=0
split_feature=0 0 5 7 6 5 7 6 7 6 7 6 1 7 6 7 6 7 7 6 7 6 7 6 2 7 7 2 2 2
split_gain=237.003 84.5894 54.0116 32.7285 33.9809 29.3645 29.2533 27.1627 29.3244 26.3055 31.3765 21.6052 27.5168 26.0825 21.5311 21.3164 20.4501 19.6221 19.3639 16.5316 23.3107 23.1681 21.6836 23.985 12.6261 12.1413 11.6604 11.0062 10.6579 10.3301
threshold=5.5682000000000009 3.5488500000000003 2.7762783380468687 -117.16499999999998 37.815000000000005 2.4839226633581477 -118.27499999999999 37.955000000000005 -118.03499999999998 34.155000000000008 -122.01499999999999 37.975000000000001 21.500000000000004 -122.35499999999998 37.615000000000002 -122.40499999999999 33.645000000000003 -117.145 -117.46499999999999 35.335000000000008 -117.79499999999999 34.035000000000004 -121.60499999999998 37.735000000000007 6.3471101137645007 -117.50499999999998 -118.33499999999999 5.5511074737062067 7.640686295039858 6.8025928032261413
decision_type=2 2 2 2 2 2 2 2 2 2 2 2 2 2 2 2 2 2 2 2 2 2 2 2 2 2 2 2 2 2
left_child=1 5 3 4 6 11 -3 8 9 26 14 12 -1 -14 -11 -9 17 -10 -18 20 21 -7 23 -21 -12 28 -2 -24 -4 -28
right_child=7 2 25 -5 -6 19 -8 15 16 10 24 -13 13 -15 -16 -17 18 -19 -20 22 -22 -23 27 -25 -26 -27 29 -29 -30 -31
leaf_value=-0.014776615269549535 0.070836196334145021 0.031464370556265629 -0.0031993139305203119 -0.032349726228512357 -0.0052394978146211389 -0.014207160648685947 0.0068727929592304815 0.046083357829290135 0.050378695801685594 0.070602401300519702 -0.0042964781278828582 -0.017810135329051759 0.058053944975620622 0.0067327627691205543 0.027334702030773067 -0.032766385897217941 0.007834934799832249 -0.0076335448503959931 -0.060971345954939075 0.014398255609308503 -0.023760848526067763 0.0064491803136805283 -0.03526252987188943 -0.019755668758769048 0.025803442148414131 -0.020296637082036995 0.017011638737416693 -0.016350633987437354 0.051602318386236828 0.06796170490126667
leaf_weight=608 298 1340 2496 143 555 1227 757 48 215 250 199 695 108 1192 213 120 369 80 46 280 957 974 1013 774 465 447 98 442 36 67
leaf_count=608 298 1340 2496 143 555 1227 757 48 215 250 199 695 108 1192 213 120 369 80 46 280 957 974 1013 774 465 447 98 442 36 67
internal_value=-4.91017e-12 -0.00502232 0.00426578 0.0142508 0.0167636 -0.0115071 0.022587 0.0285792 0.0314145 0.0389599 0.0307156 -0.00271492 0.00278359 0.0109964 0.0506974 -0.0102379 0.0145171 0.0346466 0.000208215 -0.0155456 -0.0107314 -0.00506619 -0.0216051 -0.0106825 0.0167825 -0.00510252 0.0590276 -0.0295175 -0.00242014 0.0377005
internal_weight=16512 14044 5774 2795 2652 8270 2097 2468 2300 1590 1127 2603 1908 1300 463 168 710 295 415 5667 3158 2201 2509 1054 664 2979 463 1455 2532 165
internal_count=16512 14044 5774 2795 2652 8270 2097 2468 2300 1590 1127 2603 1908 1300 463 168 710 295 415 5667 3158 2201 2509 1054 664 2979 463 1455 2532 165
is_linear=0
shrinkage=0.1


Tree=18
num_leaves=31
num_cat=0
split_feature=0 5 6 7 6 7 7 0 5 1 4 7 7 6 6 1 3 7 6 7 7 0 6 7 3 5 1 2 7 6
split_gain=194.745 52.9549 52.4913 48.3346 46.6425 98.7308 90.8778 46.1812 29.4359 22.0434 14.9772 14.5329 13.7916 17.6249 14.5814 13.4864 13.4219 12.3196 16.9191 18.4678 17.6551 11.9766 10.1325 10.0706 8.82407 8.67699 8.52906 7.79221 7.64063 11.638
threshold=4.5993500000000003 2.9137341371666818 38.475000000000001 -122.35499999999998 34.525000000000013 -118.35499999999998 -120.09499999999998 6.8672000000000013 2.3578464509898605 49.500000000000007 445.50000000000006 -116.53499999999998 -117.77499999999999 37.615000000000002 33.925000000000004 19.500000000000004 1.0097363099187919 -122.38499999999998 34.885000000000012 -120.62499999999999 -118.45499999999998 8.7395500000000013 38.685000000000009 -121.34499999999998 0.95322700148183759 1.7288724616766558 26.500000000000004 19.048314718787399 -117.71499999999999 33.565000000000005
decision_type=2 2 2 2 2 2 2 2 2 2 2 2 2 2 2 2 2 2 2 2 2 2 2 2 2 2 2 2 2 2
left_child=1 2 3 15 5 -5 -6 8 10 12 26 17 13 -10 -14 -1 21 22 20 -20 -19 -9 -3 -4 -12 -17 -2 -25 -18 -30
right_child=7 11 23 4 6 -7 -8 16 9 -11 24 -13 14 -15 -16 25 28 18 19 -21 -22 -23 -24 27 -26 -27 -28 -29 29 -31
leaf_value=-0.0074830862153591462 -0.048781163030634483 0.022334969772505889 -0.02574931818607781 0.04454307209024945 0.00077357707791374133 -0.00086535715115611429 -0.04760117446205641 0.0084785605880170478 0.014815706832193685 0.054469944888725877 -0.021310849724845454 -0.052631316622047078 0.0026082262716631199 -0.0048618127431836917 -0.034678126191972074 0.079779957040041996 0.049117353989691331 0.020630469161484925 -0.014883273538484032 -0.036400445463764253 -0.012049931353221334 0.044848780084404676 -0.026028241305533103 -0.0094683749048008383 0.043610092491372848 0.034970464313267113 0.023743713773129619 0.05199159771542658 0.050613169542149367 -0.024170761820124953
leaf_weight=69 31 163 845 605 1608 2296 512 253 1811 100 22 97 360 608 148 49 562 175 1125 618 2985 141 59 331 433 366 34 22 46 38
leaf_count=69 31 163 845 605 1608 2296 512 253 1811 100 22 97 360 608 148 49 562 175 1125 618 2985 141 59 331 433 366 34 22 46 38
internal_value=-1.3724e-11 -0.00673549 -0.000853723 0.00327446 0.000365228 0.00860452 -0.0109094 0.0175105 0.0120773 0.00830157 0.0340565 -0.0142854 0.00672424 0.00986989 -0.00825473 0.0334547 0.0360408 -0.0135596 -0.0146029 -0.0225124 -0.0102401 0.0214943 0.00948168 -0.0198234 0.0404711 0.0402612 -0.0108451 -0.00563801 0.0449128 0.0167823
internal_weight=16512 11925 6703 5505 5021 2901 2120 4587 3547 3027 520 5222 2927 2419 508 484 1040 5125 4903 1743 3160 394 222 1198 455 415 65 353 646 84
internal_count=16512 11925 6703 5505 5021 2901 2120 4587 3547 3027 520 5222 2927 2419 508 484 1040 5125 4903 1743 3160 394 222 1198 455 415 65 353 646 84
is_linear=0
shrinkage=0.1


Tree=19
num_leaves=31
num_cat=0
split_feature=0 0 5 5 7 1 7 6 7 7 6 6 7 5 1 6 2 3 7 5 6 7 7 7 3 7 6 7 0 5
split_gain=161.335 60.4421 36.2653 30.6626 23.4267 22.9965 21.7457 38.6924 59.8409 42.4578 25.3695 20.3553 44.7634 21.1371 20.1622 18.8715 18.8383 17.8661 17.2048 15.3543 15.2918 19.8704 18.8151 13.1447 13.1177 12.8651 11.4208 10.7776 8.58095 8.32514
threshold=3.8346500000000003 5.8308000000000009 2.2634687595142249 1.9322222929778572 -116.53499999999998 16.500000000000004 -121.85499999999998 34.655000000000008 -119.94499999999998 -118.22499999999998 37.595000000000006 37.915000000000006 -122.31499999999998 3.0451497112132002 27.500000000000004 34.155000000000008 3.1931825111287275 0.96895480831013081 -122.33499999999999 3.1424162072895592 37.615000000000002 -118.145 -122.40499999999999 -118.425 1.1379611504291525 -121.96499999999999 37.815000000000005 -122.07499999999997 10.027200000000002 1.6538990040802004
decision_type=2 2 2 2 2 2 2 2 2 2 2 2 2 2 2 2 2 2 2 2 2 2 2 2 2 2 2 2 2 2
left_child=3 2 5 14 11 -2 10 9 -9 -8 27 12 -5 -14 24 23 -16 -3 -12 20 21 -19 -22 -7 29 -17 -18 -4 -21 -1
right_child=1 17 6 4 -6 15 7 8 -10 -11 18 -13 13 -15 16 25 26 19 -20 28 22 -23 -24 -25 -26 -27 -28 -29 -30 -31
leaf_value=-0.034850757915648768 -0.005478042274324104 0.0042937576878351652 0.062649837002238556 0.036282789946387221 -0.045727856961785107 0.10879864938011984 0.024500608651985552 -0.0069029589371206292 -0.072867636022896601 -0.0045217026166216598 0.019852588028301376 -0.01866571423682882 -0.0027344608568335982 -0.014227764180330629 -0.023380817998233334 0.033429966563016028 0.049619537215265963 0.051249194000082779 -0.011900753696273036 0.0093119676671478187 0.055514611131869833 0.022630694572323959 -0.0026407091400691683 0.046721803790229041 0.024790112493643299 -0.012238039685612065 -0.0015912715621568538 0.024772603911300064 0.056273366725288855 -0.0013065285242578769
leaf_weight=122 171 329 105 232 182 41 726 656 174 1649 322 1876 3228 3173 57 201 225 656 363 409 78 385 194 203 117 89 54 264 43 188
leaf_count=122 171 329 105 232 182 41 726 656 174 1649 322 1876 3228 3173 57 201 225 656 363 409 78 385 194 203 117 89 54 264 43 188
internal_value=2.61582e-11 0.0114401 0.00542977 -0.00854078 -0.0102282 0.026438 0.00195224 -0.00214545 -0.0207317 0.00434996 0.0144125 -0.00946889 -0.00686777 -0.00843173 0.0106799 0.0366583 0.0290052 0.0256882 0.00302563 0.0296762 0.0351486 0.040665 0.0140362 0.0571527 -0.00373999 0.0194146 0.0397078 0.0355507 0.0137795 -0.0145078
internal_weight=16512 7058 4964 9454 8691 705 4259 3205 830 2375 1054 8509 6633 6401 763 534 336 2094 685 1765 1313 1041 272 244 427 290 279 369 452 310
internal_count=16512 7058 4964 9454 8691 705 4259 3205 830 2375 1054 8509 6633 6401 763 534 336 2094 685 1765 1313 1041 272 244 427 290 279 369 452 310
is_linear=0
shrinkage=0.1


Tree=20
num_leaves=31
num_cat=0
split_feature=0 0 3 5 5 1 0 6 5 7 6 7 1 2 6 7 6 7 6 7 6 7 5 6 7 7 7 2 7 7
split_gain=130.681 48.9581 32.1381 24.8367 22.9743 20.3507 19.1304 16.4791 16.4551 16.4348 17.8481 20.315 16.3314 15.259 15.2369 14.8662 30.2831 21.8539 17.7921 14.5744 25.4136 38.5112 27.0921 16.3811 14.1563 13.1654 12.7593 12.6232 11.9519 11.092
threshold=3.8346500000000003 5.8308000000000009 1.0259553126988288 1.9322222929778572 3.1262267671728936 16.500000000000004 1.9888500000000002 38.155000000000008 2.2634687595142249 -118.02499999999999 34.145000000000003 -122.01499999999999 27.500000000000004 3.1931825111287275 33.655000000000008 -121.56499999999998 34.595000000000006 -118.27499999999999 37.615000000000002 -117.56499999999998 34.655000000000008 -120.56499999999998 3.7262884683064175 33.925000000000004 -122.41499999999998 -119.94499999999998 -117.46499999999999 2.6633984153933228 -117.145 -117.73499999999999
decision_type=2 2 2 2 2 2 2 2 2 2 2 2 2 2 2 2 2 2 2 2 2 2 2 2 2 2 2 2 2 2
left_child=3 2 15 12 5 -4 27 9 -7 10 -3 -12 -1 -14 29 18 17 -17 -2 20 22 -22 -8 28 -20 -18 -16 -5 -21 -11
right_child=1 7 4 6 -6 8 19 -9 -10 14 11 -13 13 -15 26 16 25 -19 24 23 21 -23 -24 -25 -26 -27 -28 -29 -30 -31
leaf_value=-0.0033659931694035279 0.02703348611030933 0.048964492004597564 0.0017926650868871918 0.014711755319176435 -0.0038212547278064085 0.041994884261559395 0.0093877639723679348 -0.023557270172830314 0.017590785826038652 0.069005057891761812 0.039441419656588761 0.01109085822179055 -0.021042735786422306 0.035736991155986074 0.0034388328712607213 0.017995667356082944 -0.02508888094445131 -0.011032751477119093 0.019325033575021647 0.011540547028341475 -0.0046704043787909487 -0.029742887933032282 -0.013186048063801876 -0.035807017798754663 -0.020269954634797097 -0.072093755733676074 -0.059622683458858065 -0.020739648294571172 -0.017469080561556237 0.018536803084943029
leaf_weight=427 291 389 592 107 676 370 1775 73 1091 54 458 564 57 279 295 366 218 890 143 201 2584 803 759 340 245 82 36 1638 484 225
leaf_count=427 291 389 592 107 676 370 1775 73 1091 54 458 564 57 279 295 366 218 890 143 201 2584 803 759 340 245 82 36 1638 484 225
internal_value=-2.17749e-11 0.0102961 0.00488679 -0.0076867 0.0121685 0.0174335 -0.00920538 0.0231194 0.0237712 0.0248054 0.0307347 0.0237959 0.00961193 0.0261047 0.0110903 -0.00400435 -0.0093919 -0.00257383 0.0083418 -0.00685381 -0.00494795 -0.0106147 0.00262631 -0.0178632 -0.00567696 -0.0379369 -0.00341982 -0.0185658 -0.00895677 0.0283049
internal_weight=16512 7058 4964 9454 2729 2053 8691 2094 1461 2021 1411 1022 763 336 610 2235 1556 1256 679 6946 5921 3387 2534 1025 388 300 331 1745 685 279
internal_count=16512 7058 4964 9454 2729 2053 8691 2094 1461 2021 1411 1022 763 336 610 2235 1556 1256 679 6946 5921 3387 2534 1025 388 300 331 1745 685 279
is_linear=0
shrinkage=0.1


Tree=21
num_leaves=31
num_cat=0
split_feature=0 5 6 7 6 6 6 7 6 7 6 7 6 7 6 7 6 7 7 7 6 7 1 7 6 6 7 2 3 7
split_gain=106.069 41.6858 48.4229 47.8723 41.8271 36.8912 33.9768 31.249 15.6905 15.2096 15.3048 19.978 17.37 13.8723 12.8072 13.8998 12.1517 13.2979 11.6197 10.4312 15.0022 13.8025 11.2634 10.2367 10.1821 9.81253 7.20479 7.21498 6.41794 6.34424
threshold=5.5682000000000009 3.133655264613683 37.925000000000004 -117.77499999999999 33.625000000000007 33.875000000000007 34.525000000000013 -117.16499999999998 37.955000000000005 -118.03499999999998 34.155000000000008 -121.91499999999998 34.595000000000006 -122.40499999999999 33.645000000000003 -117.145 39.355000000000011 -122.38499999999998 -117.46499999999999 -121.48499999999999 35.135000000000012 -117.79499999999999 29.500000000000004 -121.24499999999999 37.615000000000002 37.895000000000003 -118.33499999999999 6.5207558992324239 1.2826345772258851 -122.24499999999999
decision_type=2 2 2 2 2 2 2 2 2 2 2 2 2 2 2 2 2 2 2 2 2 2 2 2 2 2 2 2 2 2
left_child=1 2 3 4 -1 7 -6 -5 9 10 26 24 -13 -10 15 -11 17 28 -16 25 21 22 -21 -19 -12 29 -2 -28 -4 -3
right_child=8 19 16 5 6 -7 -8 -9 13 14 11 12 -14 -15 18 -17 -18 23 -20 20 -22 -23 -24 -25 -26 -27 27 -29 -30 -31
leaf_value=0.1379638996832073 0.051297222316615133 0.025490127678243647 0.013917541780728106 0.019907380250169249 0.016222424021098646 -0.032608100658230499 0.0005239610376742644 -0.014043000321416669 0.035051777193439194 0.038275488926487605 0.043885532487452202 0.022771789585139684 -0.014160183641385844 -0.028557157294514281 0.0036891159920153134 -0.010550433754760889 -0.025788312926580126 -0.017758938729869125 -0.049611140658026159 0.0056459055180026804 -0.025121598808721304 -0.02116265178406003 -0.010321901431695828 0.0017476076608487609 0.017908961700353151 -0.019155801039371527 0.003955859953054675 0.045784851363194844 -0.020991708432871199 0.00042319921246631361
leaf_weight=25 298 139 321 454 2740 518 2775 673 48 215 347 278 235 120 369 80 511 1056 46 612 837 808 1588 361 267 194 81 84 63 369
leaf_count=25 298 139 321 454 2740 518 2775 673 48 215 347 278 235 120 369 80 511 1056 46 612 837 808 1588 361 267 194 81 84 63 369
internal_value=7.1588e-12 -0.00335986 0.000409942 0.00446048 0.0089084 -0.0105191 0.00832338 -0.000366449 0.019119 0.021274 0.0267081 0.0204196 0.00585363 -0.0103832 0.00910474 0.0250346 -0.0121779 -0.00831621 -0.00221886 -0.0112336 -0.0132801 -0.00998514 -0.00587995 -0.0127894 0.0325895 -2.4127e-05 0.042015 0.0252506 0.00819024 0.00728206
internal_weight=16512 14044 9497 7185 5540 1645 5515 1127 2468 2300 1590 1127 513 168 710 295 2312 1801 415 4547 3845 3008 2200 1417 614 702 463 165 384 508
internal_count=16512 14044 9497 7185 5540 1645 5515 1127 2468 2300 1590 1127 513 168 710 295 2312 1801 415 4547 3845 3008 2200 1417 614 702 463 165 384 508
is_linear=0
shrinkage=0.1


Tree=22
num_leaves=31
num_cat=0
split_feature=0 3 2 5 7 1 7 6 7 5 6 7 6 6 1 7 0 6 0 1 6 6 6 2 0 7 6 6 7 3
split_gain=89.9465 33.5729 27.2981 19.9524 19.5481 18.5244 17.6853 17.975 40.1145 18.8742 17.5219 15.7598 20.0309 13.7437 13.1093 11.1958 8.97451 8.73241 7.78168 6.01244 7.22301 5.85776 5.75789 5.85265 5.71246 5.37013 9.44398 4.79349 4.30251 4.25643
threshold=3.8346500000000003 1.0411779658482614 6.4946700411501865 3.1424162072895592 -117.75499999999998 11.500000000000002 -116.47499999999998 37.895000000000003 -122.31499999999998 3.0451497112132002 35.335000000000008 -117.16499999999998 37.595000000000006 37.995000000000012 31.500000000000004 -121.34499999999998 6.8672000000000013 37.785000000000004 9.1688500000000008 33.500000000000007 39.425000000000004 33.875000000000007 33.565000000000005 6.0160804182524883 5.3357000000000001 -122.33499999999999 37.645000000000003 34.135000000000012 -121.56499999999998 0.98327525320217724
decision_type=2 2 2 2 2 2 2 2 2 2 2 2 2 2 2 2 2 2 2 2 2 2 2 2 2 2 2 2 2 2
left_child=6 2 4 5 13 22 7 8 17 10 -10 12 -7 15 18 -2 -5 -1 28 20 -9 -11 23 -3 -24 -16 -27 -6 -4 -15
right_child=1 3 14 16 27 11 -8 19 9 21 -12 -13 -14 29 25 -17 -18 -19 -20 -21 -22 -23 24 -25 -26 26 -28 -29 -30 -31
leaf_value=0.025402613326187148 0.012589103397631019 -0.0088391469093039628 0.017478432640650157 -0.0031725627526539217 -0.019905597090884238 0.033256881752325794 -0.03777995263781949 -0.0059831695659007499 0.0046063578221601578 -0.0010737895640055858 -0.0097983728631899289 -0.016484904421535742 0.010113285879787007 -0.036636074864784783 0.071348521610101065 -0.0018713132177739973 0.02830929631872155 0.072159013447041315 0.038609705031627702 -0.022210567088435343 -0.022057032422523572 -0.012584829477846419 -0.016867083593292143 0.04637185209442881 0.011997883983633736 0.040954263016917847 -0.0063928906026888971 -0.063535105795771984 0.00082358836985678928 -0.01057320662541315
leaf_weight=238 837 32 233 589 374 1345 176 1007 2528 531 1268 88 518 103 36 1486 107 48 84 631 387 2640 182 48 110 180 55 27 464 160
leaf_count=238 837 32 233 589 374 1345 176 1007 2528 531 1268 88 518 103 36 1486 107 48 84 631 387 2640 182 48 110 180 55 27 464 160
internal_value=-1.34752e-11 0.008542 0.00257922 0.0165194 -0.00229965 0.0209692 -0.00637713 -0.00578143 -0.00345569 -0.00496248 -0.000205338 0.0248685 0.0268219 0.000885955 0.0164321 0.00333892 0.00166732 0.0332498 0.00985638 -0.0141116 -0.0104456 -0.0106572 0.000518694 0.0242875 -0.00599329 0.0353827 0.029873 -0.0228432 0.00639113 -0.0207803
internal_weight=16512 7058 4039 3019 2987 2323 9454 9278 7253 6967 3796 1951 1863 2586 1052 2323 696 286 781 2025 1394 3171 372 80 292 271 235 401 697 263
internal_count=16512 7058 4039 3019 2987 2323 9454 9278 7253 6967 3796 1951 1863 2586 1052 2323 696 286 781 2025 1394 3171 372 80 292 271 235 401 697 263
is_linear=0
shrinkage=0.1


Tree=23
num_leaves=31
num_cat=0
split_feature=0 2 5 1 3 0 5 1 1 7 6 7 7 6 6 7 7 7 6 7 7 3 6 1 5 0 6 7 2 6
split_gain=72.8567 28.5639 36.3563 20.8077 18.5054 16.3491 17.4443 16.0458 15.1356 13.1922 21.2091 13.0892 11.0372 18.9272 14.4834 23.889 23.2529 10.9546 33.2573 46.8497 15.6738 10.8312 10.4612 9.29766 10.6028 8.9043 8.85533 10.718 8.45525 8.01333
threshold=3.8346500000000003 6.3652809400434434 2.446986231743232 16.500000000000004 1.0919636335678318 1.8066500000000001 1.9322222929778572 28.500000000000004 33.500000000000007 -118.34499999999998 34.085000000000008 -117.79499999999999 -122.38499999999998 38.32500000000001 34.655000000000008 -120.09499999999998 -118.35499999999998 -121.85499999999998 34.655000000000008 -119.94499999999998 -119.21499999999999 1.1668343393695511 37.665000000000006 11.500000000000002 3.4159362260510568 3.4105000000000003 37.595000000000006 -122.33499999999999 2.6633984153933228 37.595000000000006
decision_type=2 2 2 2 2 2 2 2 2 2 2 2 2 2 2 2 2 2 2 2 2 2 2 2 2 2 2 2 2 2
left_child=5 2 3 -2 29 28 7 9 17 10 -7 23 13 -8 16 -16 -14 22 20 -20 -19 -11 -3 -4 -25 -9 -10 -28 -1 -5
right_child=1 8 11 4 -6 6 12 25 26 21 -12 -13 14 -15 15 -17 -18 18 19 -21 -22 -23 -24 24 -26 -27 27 -29 -30 -31
leaf_value=0.010713851079344749 -0.0080145266833062164 0.043673421928976129 -0.020916898812081818 0.024396498034178801 0.051463338009298157 0.087126016616821289 0.02891025711049712 0.02161880991542213 0.038940870898363122 -0.037442783929873262 0.00052109907763744033 -0.017717594947370918 0.017235537509929861 -0.007831906171624858 -0.0066441725804211073 -0.027292778020487081 -0.005483472777605549 0.085349139469591051 0.0014220840044105126 -0.079642076499035791 0.015318048728661205 0.024208130893876426 0.013284127227676086 0.004725632766679564 -0.01147904662680943 0.068291860468685628 0.050217657714930121 -0.0057810244101009012 -0.018059308629190401 0.0030181414831939647
leaf_weight=111 253 188 196 526 198 34 246 224 393 124 168 483 523 326 2347 736 3250 33 343 90 1013 37 285 2134 498 50 49 113 1278 263
leaf_count=111 253 188 196 526 198 34 246 224 393 124 168 483 523 326 2347 736 3250 33 343 90 1013 37 285 2134 498 50 49 113 1278 263
internal_value=-1.65283e-11 0.0076878 0.00296617 0.0175713 0.0241298 -0.00573942 -0.00401363 0.0118679 0.0162591 -0.00192114 0.0150982 -0.00250359 -0.00537557 0.00796979 -0.00648898 -0.0115736 -0.00233424 0.0121159 0.00787944 -0.0154273 0.0175274 -0.0232746 0.0253627 9.48455e-05 0.00165955 0.0301358 0.0308309 0.0111568 -0.0157599 0.0172704
internal_weight=16512 7058 4551 1240 987 9454 8065 637 2507 363 202 3311 7428 572 6856 3083 3773 1952 1479 433 1046 161 473 2828 2632 274 555 162 1389 789
internal_count=16512 7058 4551 1240 987 9454 8065 637 2507 363 202 3311 7428 572 6856 3083 3773 1952 1479 433 1046 161 473 2828 2632 274 555 162 1389 789
is_linear=0
shrinkage=0.1


Tree=24
num_leaves=31
num_cat=0
split_feature=0 7 6 7 6 6 7 7 6 7 3 7 6 7 0 2 1 7 7 5 6 2 5 6 7 1 6 7 6 6
split_gain=59.5937 21.6321 58.7466 62.1666 54.079 38.6736 66.7237 24.2257 28.9122 21.8657 20.7631 16.5376 18.9917 16.0282 14.3901 13.6205 17.82 13.1153 12.9484 12.8049 12.3588 10.9763 10.3781 10.3664 11.8789 10.3509 9.94859 9.717 12.2309 8.97667
threshold=4.5993500000000003 -121.675 35.335000000000008 -118.30499999999999 37.595000000000006 34.155000000000008 -118.37499999999999 -122.38499999999998 38.705000000000005 -119.55499999999999 1.0385565016069338 -116.53499999999998 33.855000000000011 -119.84499999999998 3.3096500000000004 5.5906824776478556 36.500000000000007 -118.35499999999998 -121.87499999999999 2.2258490646439681 34.165000000000006 5.6402247191011243 3.1424162072895592 37.645000000000003 -122.33499999999999 11.500000000000002 37.745000000000012 -122.02499999999999 37.615000000000002 34.595000000000006
decision_type=2 2 2 2 2 2 2 2 2 2 2 2 2 2 2 2 2 2 2 2 2 2 2 2 2 2 2 2 2 2
left_child=1 4 3 5 18 6 -3 8 26 -7 15 12 -5 -4 19 17 27 20 -1 -15 -2 -20 25 -18 -25 -12 -6 28 -17 -29
right_child=10 2 13 11 7 9 -8 -9 -10 -11 22 -13 -14 14 -16 16 23 -19 21 -21 -22 -23 -24 24 -26 -27 -28 29 -30 -31
leaf_value=0.03889657496289653 0.038894237634762158 0.076783580867526666 -0.013533391330375647 0.0024894311792360447 -0.0016575826689272932 0.027677729594748186 0.01200322825174841 -0.012726327533342628 -0.016136181467866949 -0.0080517346841032025 0.0028012153026199739 -0.033549583876824558 -0.010524246421131894 -0.069947005054828801 -0.057713242445606744 0.047096940051388307 0.040555067603733952 -0.026089943267232435 -0.0064694143712387131 -0.019467429064383854 -0.0060943931546377939 0.067225897607083127 0.0043711319956129769 0.050701605776945748 -0.02296797471264234 0.025576315438336179 0.026991458600272845 0.0062274552655918686 0.0044701434579275719 -0.010416406084076348
leaf_weight=453 77 238 1875 1887 159 238 479 1224 326 611 239 216 2764 55 156 109 235 259 128 582 295 24 446 33 65 1209 510 953 176 491
leaf_count=453 77 238 1875 1887 159 238 479 1224 326 611 239 216 2764 55 156 109 235 259 128 582 295 24 446 33 65 1209 510 953 176 491
internal_value=-1.54887e-11 -0.00372594 -0.00609844 -0.000924365 0.00392003 0.016406 0.0335063 -0.00330569 0.00828311 0.0019643 0.00968646 -0.00650055 -0.00524435 -0.018574 -0.0304923 0.00404419 0.00797832 -0.00881186 0.0304223 -0.0238259 0.00321777 0.00516669 0.017709 0.0291612 0.00183913 0.0218172 0.0201825 0.00389857 0.020773 0.000568081
internal_weight=16512 11925 9101 6433 2824 1566 717 2219 995 849 4587 4867 4651 2668 793 2693 2062 631 605 637 372 152 1894 333 98 1448 669 1729 285 1444
internal_count=16512 11925 9101 6433 2824 1566 717 2219 995 849 4587 4867 4651 2668 793 2693 2062 631 605 637 372 152 1894 333 98 1448 669 1729 285 1444
is_linear=0
shrinkage=0.1


Tree=25
num_leaves=31
num_cat=0
split_feature=0 7 6 7 6 6 7 7 6 7 7 0 7 6 7 3 1 4 5 2 0 7 6 4 0 6 7 2 5 0
split_gain=49.2792 25.019 67.2991 72.3092 48.1174 46.3631 67.2482 27.6968 27.6052 25.5185 18.76 19.5998 15.6491 20.8842 15.2649 11.8204 10.8991 10.6463 10.5994 9.35118 9.32857 9.4689 8.24706 8.18172 8.12144 7.41964 11.6444 6.75789 6.6164 5.90849
threshold=5.6851000000000012 -121.675 35.335000000000008 -118.30499999999999 37.595000000000006 34.165000000000006 -118.37499999999999 -122.38499999999998 38.705000000000005 -119.55499999999999 -119.94499999999998 3.3096500000000004 -116.22499999999998 33.755000000000003 -122.13499999999998 1.0646557958336251 25.500000000000004 170.50000000000003 2.2038024706228283 6.3652809400434434 8.2050500000000017 -122.33499999999999 37.755000000000003 139.50000000000003 2.0673500000000007 37.57500000000001 -122.03499999999998 6.2144426020714691 2.4580295480374166 4.0458000000000007
decision_type=2 2 2 2 2 2 2 2 2 2 2 2 2 2 2 2 2 2 2 2 2 2 2 2 2 2 2 2 2 2
left_child=1 4 3 5 14 6 -3 8 22 -7 16 18 13 -5 -1 20 -4 -17 -12 24 21 -2 -6 -9 -16 26 -23 -27 -13 -18
right_child=15 2 10 12 7 9 -8 23 -10 -11 11 28 -14 -15 19 17 29 -19 -20 -21 -22 25 -24 -25 -26 27 -28 -29 -30 -31
leaf_value=0.053499748175689844 0.04097695119885935 0.066274596734896121 -0.0058882267528063328 0.0046866498334909744 0.0045724322214736905 0.027209943910645119 0.011531252843963337 0.043479712362642642 -0.014889786936240809 -0.007497870538271301 -0.066176442006447664 -0.095538140482762282 -0.038446734201030008 -0.0085871891629691211 0.077349311193185194 -0.037690093830227853 -0.018034411412801599 0.029047187539971001 -0.01737983551907215 0.060774685256183153 0.023845278105097591 0.043411840033921893 0.026012026533956612 -0.01208647816291993 0.014243155206199447 -0.056964525431394575 0.0041724423214219864 -0.0059822904719756204 -0.047751413418778352 -0.045952767134821493
leaf_weight=153 72 366 1153 1694 261 294 580 27 329 758 48 34 140 3947 21 25 777 545 613 50 358 82 574 1427 706 30 973 195 196 84
leaf_count=153 72 366 1153 1694 261 294 580 27 329 758 48 34 140 3947 21 25 777 545 613 50 358 82 574 1427 706 30 973 195 196 84
internal_value=-2.05407e-13 -0.00218659 -0.00460275 0.000247329 0.00508915 0.0166471 0.032711 -0.00185175 0.00964396 0.00220184 -0.0175903 -0.0296721 -0.00542069 -0.00460104 0.0246282 0.0136489 -0.0122452 0.0261201 -0.0209233 0.018943 0.00949183 0.00569114 0.0193105 -0.0110546 0.016066 0.00370631 0.00722233 -0.0127799 -0.0548155 -0.0207582
internal_weight=16512 14232 10684 7779 3548 1998 946 2618 1164 1052 2905 891 5781 5641 930 2280 2014 570 661 777 1710 1352 835 1454 727 1280 1055 225 230 861
internal_count=16512 14232 10684 7779 3548 1998 946 2618 1164 1052 2905 891 5781 5641 930 2280 2014 570 661 777 1710 1352 835 1454 727 1280 1055 225 230 861
is_linear=0
shrinkage=0.1


Tree=26
num_leaves=31
num_cat=0
split_feature=0 3 5 3 7 6 7 6 7 6 6 6 7 7 6 7 1 6 7 7 7 6 2 6 2 1 2 3 2 7
split_gain=40.1681 22.2546 15.6188 12.6122 14.2103 16.4431 23.7605 28.4703 21.4931 45.3151 25.5854 12.8375 14.2541 12.3652 31.4191 12.7803 12.2578 13.6376 25.003 14.4038 11.0337 9.47677 8.67438 8.53463 8.17451 8.16862 6.97211 6.83087 6.63425 5.41837
threshold=3.8346500000000003 1.0003353454057682 3.1424162072895592 0.98548810139184051 -117.50499999999998 34.595000000000006 -121.56499999999998 37.615000000000002 -118.36499999999999 34.155000000000008 34.045000000000009 33.695000000000007 -117.16499999999998 -121.675 34.595000000000006 -118.33499999999999 17.500000000000004 37.615000000000002 -122.40499999999999 -117.175 -120.34499999999998 34.155000000000008 6.426847469967238 37.965000000000011 8.0108708495805292 20.500000000000004 5.9337252616664395 1.5515630035449568 6.1632226112202213 -117.75499999999998
decision_type=2 2 2 2 2 2 2 2 2 2 2 2 2 2 2 2 2 2 2 2 2 2 2 2 2 2 2 2 2 2
left_child=3 13 16 -1 5 8 7 -7 9 -5 -10 12 25 23 15 21 22 19 -19 -18 -16 -15 -3 -2 29 -6 -8 -24 -17 -4
right_child=1 2 24 4 11 6 26 -9 10 -11 -12 -13 -14 14 20 28 17 18 -20 -21 -22 -23 27 -25 -26 -27 -28 -29 -30 -31
leaf_value=-0.014230003674667835 0.013144699533707657 -0.004205366407657939 0.00042278352342452755 0.063779673512567192 -0.0014448759119676533 0.026950680538694594 -0.015583939902909294 -0.0032587482591312743 -0.0068273093684124812 0.0012916580580922803 0.014833333996711323 -0.024141121097757248 -0.012534921055770776 0.035540968941295173 -0.027099988900726055 -0.0134108154156661 0.022461357716978381 0.02777455057781324 -0.01072490100873936 -0.020368226926501205 -0.073725640690988969 0.00026803431440117388 0.018924918312290491 -0.015971103585321007 0.023374858752021013 0.038002168129269896 -0.0014572192182183915 -0.019707275661998071 0.0054842325623334848 -0.017054232735883728
leaf_weight=1119 576 609 899 179 106 387 1667 1609 1579 330 833 549 550 138 172 606 1851 278 429 82 72 170 382 122 131 104 442 52 268 221
leaf_count=1119 576 609 899 179 106 387 1667 1609 1579 330 833 549 550 138 172 606 1851 278 429 82 72 170 382 122 131 104 442 52 268 221
internal_value=1.46829e-11 0.00570831 0.00939254 -0.00426161 -0.00292332 -0.00114109 -0.00522191 0.00259849 0.00459386 0.0232668 0.000653336 -0.0124894 -0.00407255 -0.00285006 -0.00818822 -0.00144413 0.0126716 0.0162978 0.0044135 0.0206445 -0.0408584 0.0160721 0.00349326 0.00805569 -0.000261228 0.0180908 -0.0126233 0.0142962 -0.00761691 -0.00302581
internal_weight=16512 7058 4934 9454 8335 7026 4105 1996 2921 509 2412 1309 760 2124 1426 1182 3683 2640 707 1933 244 308 1043 698 1251 210 2109 434 874 1120
internal_count=16512 7058 4934 9454 8335 7026 4105 1996 2921 509 2412 1309 760 2124 1426 1182 3683 2640 707 1933 244 308 1043 698 1251 210 2109 434 874 1120
is_linear=0
shrinkage=0.1


Tree=27
num_leaves=31
num_cat=0
split_feature=2 7 6 6 7 6 6 7 1 6 7 6 6 7 3 7 4 3 7 7 7 6 1 6 5 6 1 7 0 6
split_gain=35.2369 22.901 29.7112 24.9523 26.5181 24.2781 19.1967 25.401 18.8359 12.8924 17.2953 11.4983 10.2705 19.3044 9.70116 8.4195 8.16135 7.80292 6.39013 5.92495 5.77899 9.49057 6.97657 5.50697 5.00243 4.89104 4.20446 4.03972 3.98967 3.98855
threshold=6.3286213786213787 -117.77499999999999 33.625000000000007 37.915000000000006 -122.29499999999999 34.525000000000013 33.565000000000005 -117.24499999999999 20.500000000000004 37.985000000000007 -117.175 37.765000000000008 33.565000000000005 -117.73499999999999 1.1205146598977305 -122.33499999999999 198.50000000000003 1.2424696062420615 -116.31499999999998 -116.22499999999998 -122.425 38.005000000000003 23.500000000000004 33.995000000000012 2.4136952392348081 39.355000000000011 28.500000000000004 -117.145 4.3163000000000009 33.005000000000003
decision_type=2 2 2 2 2 2 2 2 2 2 2 2 2 2 2 2 2 2 2 2 2 2 2 2 2 2 2 2 2 2
left_child=1 2 -1 4 11 -6 7 8 -3 10 12 -4 17 15 -10 -14 -8 -2 27 23 21 -5 -22 29 28 -11 -15 -9 -18 -12
right_child=9 6 3 20 5 -7 16 18 14 25 19 -13 13 26 -16 -17 24 -19 -20 -21 22 -23 -24 -25 -26 -27 -28 -29 -30 -31
leaf_value=0.09578550442820416 0.031134352619033856 -0.00014360211722445315 0.01108387251324193 0.044748472236096862 0.0044609594123115421 -0.0066031754986889089 0.038056529143994509 0.0039552043230389753 0.042929552935917555 -4.2648394743853946e-05 -0.012589374660617776 0.038927877641533715 0.046622097527395691 -0.0097344651434089335 0.11634297740335267 0.015590721681526188 -0.033311723151065578 0.094113048805814725 -0.037450423815239268 -0.048100270980170799 -0.0058540941960771656 -0.0048789746210473137 -0.01862111586381323 -0.033129606678805969 -0.020038610683479313 -0.026204410845032302 -0.0541945277635629 -0.011419024216101536 -0.080701127275824555 0.014232908404203102
leaf_weight=32 136 104 405 42 5081 3253 22 231 72 514 99 234 92 187 24 1762 159 23 77 35 775 467 956 54 766 83 24 657 20 126
leaf_count=32 136 104 405 42 5081 3253 22 231 72 514 99 234 92 187 24 1762 159 23 77 35 775 467 956 54 766 83 24 657 20 126
internal_value=3.68446e-12 -0.00223634 -0.000434729 -0.000709325 0.00164762 0.000142309 -0.0117388 -0.00309365 0.0293411 0.00954244 0.0126527 0.0212803 0.0157545 0.0138688 0.0612829 0.0171306 -0.022154 0.0402445 -0.00981589 -0.00931691 -0.0101508 -0.000783979 -0.0129051 -0.00445161 -0.0235557 -0.00367988 -0.0147915 -0.00741965 -0.0386066 0.0024311
internal_weight=16512 13377 11245 11213 8973 8334 2132 1165 200 3135 2538 639 2224 2065 96 1854 967 159 965 314 2240 509 1731 279 945 597 211 888 179 225
internal_count=16512 13377 11245 11213 8973 8334 2132 1165 200 3135 2538 639 2224 2065 96 1854 967 159 965 314 2240 509 1731 279 945 597 211 888 179 225
is_linear=0
shrinkage=0.1


Tree=28
num_leaves=31
num_cat=0
split_feature=2 5 7 6 7 7 6 6 6 7 5 7 1 6 7 6 6 6 7 6 4 5 4 7 6 7 7 0 6 7
split_gain=28.5419 20.938 14.7703 63.2563 25.6794 19.6062 24.9112 18.3446 17.82 22.1839 15.1164 13.261 13.4967 10.5257 14.3175 11.6835 10.8094 9.67043 9.09471 44.3793 8.14371 8.18862 10.8271 7.87836 7.47594 7.41085 5.23617 4.92764 4.62921 4.24884
threshold=6.3286213786213787 2.5763869593405579 -118.27499999999999 34.155000000000008 -121.87499999999999 -118.425 34.045000000000009 37.595000000000006 33.695000000000007 -117.24499999999999 1.5104297674263547 -118.01499999999999 30.500000000000004 37.955000000000005 -117.71499999999999 33.895000000000003 33.655000000000008 35.335000000000008 -121.60499999999998 34.655000000000008 1849.5000000000002 3.4287187039764362 70.000000000000014 -116.22499999999998 37.645000000000003 -117.56499999999998 -117.46499999999999 3.1552000000000002 32.745000000000012 -117.13499999999998
decision_type=2 2 2 2 2 2 2 2 2 2 2 2 2 2 2 2 2 2 2 2 2 2 2 2 2 2 2 2 2 2
left_child=1 2 3 5 7 27 -7 -5 9 10 -4 12 -10 14 16 23 -2 -6 24 -20 21 22 -3 29 -18 -24 -17 -1 -11 -16
right_child=13 20 8 4 17 6 -8 -9 11 28 -12 -13 -14 -15 15 26 18 -19 19 -21 -22 -23 25 -25 -26 -27 -28 -29 -30 -31
leaf_value=0.094171918323263534 0.058881697042338678 0.064039543206277111 -0.046124932855367666 0.026745772571526827 0.0031858924842199086 0.0049494384540908253 0.05136312769533069 0.0022065022270438299 -0.028276226007807027 0.010679890008988592 0.035415367579194987 -0.030020983236207933 0.011523205117580211 -0.0029431411192168133 0.02038039505485878 0.0038657816095898551 0.033556674778563521 -0.016203239856661108 0.020726691832368756 -0.024753289812411594 0.00026655352762332805 -0.012150161771125538 -0.003213796141408229 -0.049215193935062573 0.011985726461126001 -0.015799498023271106 -0.031259841496959845 0.054244015960926741 -0.01540298277140993 0.00045701063405608811
leaf_weight=40 57 23 25 416 364 278 198 1138 134 89 251 357 234 632 224 60 365 877 850 287 2195 1972 3828 23 287 533 145 136 289 205
leaf_count=40 57 23 25 416 364 278 198 1138 134 89 251 357 234 632 224 60 365 877 850 287 2195 1972 3828 23 287 533 145 136 289 205
internal_value=2.62501e-12 -0.00201271 0.00325356 0.0067527 0.000209898 0.0348005 0.024256 0.00877557 -0.00549303 0.00647581 0.0280295 -0.0162898 -0.00296898 0.00858819 0.0114998 -0.00117775 0.0160118 -0.0105162 0.0146459 0.0092467 -0.00498488 -0.00679842 -0.00439111 0.00780298 0.0240615 -0.00475202 -0.0209792 0.0633185 -0.00926178 0.0108599
internal_weight=16512 13377 4826 3447 2795 652 476 1554 1379 654 276 725 368 3135 2503 657 1846 1241 1789 1137 8551 6356 4384 452 652 4361 205 176 378 429
internal_count=16512 13377 4826 3447 2795 652 476 1554 1379 654 276 725 368 3135 2503 657 1846 1241 1789 1137 8551 6356 4384 452 652 4361 205 176 378 429
is_linear=0
shrinkage=0.1


Tree=29
num_leaves=31
num_cat=0
split_feature=2 3 6 7 7 0 6 7 6 7 7 7 5 1 0 5 0 3 6 7 7 6 6 5 7 4 0 4 4 2
split_gain=23.4541 18.8985 14.5763 57.9967 43.7091 29.7481 25.9886 18.7203 15.1617 14.7083 14.0033 13.8178 12.3811 17.4906 10.556 10.4812 10.4712 10.0494 9.45063 12.3829 8.44001 8.00932 7.58567 7.3922 6.98539 6.4904 6.319 6.17164 6.16947 7.21786
threshold=5.5511074737062067 0.98548810139184051 34.525000000000013 -119.94499999999998 -118.01499999999999 5.0387000000000013 37.615000000000002 -119.21499999999999 33.765000000000008 -120.62499999999999 -117.46499999999999 -117.13499999999998 2.5763869593405579 18.500000000000004 3.1792500000000001 2.3055777777777782 3.5488500000000003 1.2424696062420615 39.355000000000011 -122.40499999999999 -117.13499999999998 37.085000000000008 34.185000000000009 1.4183788552305943 -116.22499999999998 431.50000000000006 5.8308000000000009 170.50000000000003 1427.5000000000002 3.0522493994321906
decision_type=2 2 2 2 2 2 2 2 2 2 2 2 2 2 2 2 2 2 2 2 2 2 2 2 2 2 2 2 2 2
left_child=1 -1 4 6 7 16 9 -2 11 21 25 17 13 -3 23 -9 -5 -6 19 -8 -16 -4 -17 -15 -13 -10 -7 -14 -29 -30
right_child=2 12 3 5 8 26 18 15 10 -11 -12 24 27 14 20 22 -18 -19 -20 -21 -22 -23 -24 -25 -26 -27 -28 28 29 -31
leaf_value=-0.012596086585064326 0.072884160563349717 -0.0090393683902325744 0.043691370930638407 -0.0075533676153017124 0.014528197085923782 -0.063851976254954937 0.017576793028335185 0.053270647074393142 0.052910258750552719 -0.011790297335664252 -0.024820073306942466 -0.0008034292538843823 0.035844378389025988 -0.044866200536489487 0.016014206857923586 0.023913955418100787 -0.039770771747702639 0.061473799338564276 -0.019477810912940187 -0.002663610302383026 -0.046529576360163367 0.019199396389387932 0.0051470005199323668 0.0030192299500408147 -0.042180536607401856 -0.0014438756529303572 -0.12173967524008318 -0.0081564136407613758 0.02289326768994215 -0.0022705072736651263
leaf_weight=1716 75 832 169 242 518 44 384 94 23 131 356 361 38 33 1120 733 173 50 240 1420 22 636 305 1396 46 490 33 2437 120 2275
leaf_count=1716 75 832 169 242 518 44 384 94 23 131 356 361 38 33 1120 733 173 50 240 1420 22 636 305 1396 46 490 33 2437 120 2275
internal_value=-2.00185e-11 -0.00304559 0.00466387 0.000232564 0.00970664 -0.0315755 0.0054841 0.0245008 2.30175e-05 0.0192843 -0.00958171 0.00858354 -0.00106461 0.00356326 0.00764159 0.0212952 -0.0209838 0.0186607 -0.000835378 0.00164477 0.0148093 0.0243412 0.0183996 0.00191341 -0.00547996 0.000993054 -0.088661 -0.00429842 -0.00461411 -0.00100969
internal_weight=16512 9989 6523 3472 3051 492 2980 1207 1844 936 869 975 8273 3403 2571 1132 415 568 2044 1804 1142 805 1038 1429 407 513 77 4870 4832 2395
internal_count=16512 9989 6523 3472 3051 492 2980 1207 1844 936 869 975 8273 3403 2571 1132 415 568 2044 1804 1142 805 1038 1429 407 513 77 4870 4832 2395
is_linear=0
shrinkage=0.1


end of trees

feature_importances:
Column_7=252
Column_6=232
Column_0=124
Column_5=117
Column_1=82
Column_2=45
Column_3=29
Column_4=19

parameters:
[boosting: gbdt]
[objective: regression]
[metric: l2]
[tree_learner: serial]
[device_type: cpu]
[data_sample_strategy: bagging]
[data: ]
[valid: ]
[num_iterations: 30]
[learning_rate: 0.1]
[num_leaves: 31]
[num_threads: 2]
[seed: 42]
[deterministic: 0]
[force_col_wise: 0]
[force_row_wise: 0]
[histogram_pool_size: -1]
[max_depth: 6]
[min_data_in_leaf: 20]
[min_sum_hessian_in_leaf: 0.001]
[bagging_fraction: 1]
[pos_bagging_fraction: 1]
[neg_bagging_fraction: 1]
[bagging_freq: 0]
[bagging_seed: 400]
[bagging_by_query: 0]
[feature_fraction: 1]
[feature_fraction_bynode: 1]
[feature_fraction_seed: 30056]
[extra_trees: 0]
[extra_seed: 12879]
[early_stopping_round: 0]
[early_stopping_min_delta: 0]
[first_metric_only: 0]
[max_delta_step: 0]
[lambda_l1: 0]
[lambda_l2: 0]
[linear_lambda: 0]
[min_gain_to_split: 0]
[drop_rate: 0.1]
[max_drop: 50]
[skip_drop: 0.5]
[xgboost_dart_mode: 0]
[uniform_drop: 0]
[drop_seed: 17869]
[top_rate: 0.2]
[other_rate: 0.1]
[min_data_per_group: 100]
[max_cat_threshold: 32]
[cat_l2: 10]
[cat_smooth: 10]
[max_cat_to_onehot: 4]
[top_k: 20]
[monotone_constraints: ]
[monotone_constraints_method: basic]
[monotone_penalty: 0]
[feature_contri: ]
[forcedsplits_filename: ]
[refit_decay_rate: 0.9]
[cegb_tradeoff: 1]
[cegb_penalty_split: 0]
[cegb_penalty_feature_lazy: ]
[cegb_penalty_feature_coupled: ]
[path_smooth: 0]
[interaction_constraints: ]
[verbosity: -1]
[saved_feature_importance_type: 0]
[use_quantized_grad: 0]
[num_grad_quant_bins: 4]
[quant_train_renew_leaf: 0]
[stochastic_rounding: 1]
[linear_tree: 0]
[max_bin: 255]
[max_bin_by_feature: ]
[min_data_in_bin: 3]
[bin_construct_sample_cnt: 200000]
[data_random_seed: 175]
[is_enable_sparse: 1]
[enable_bundle: 1]
[use_missing: 1]
[zero_as_missing: 0]
[feature_pre_filter: 1]
[pre_partition: 0]
[two_round: 0]
[header: 0]
[label_column: ]
[weight_column: ]
[group_column: ]
[ignore_column: ]
[categorical_feature: ]
[forcedbins_filename: ]
[precise_float_parser: 0]
[parser_config_file: ]
[objective_seed: 16083]
[num_class: 1]
[is_unbalance: 0]
[scale_pos_weight: 1]
[sigmoid: 1]
[boost_from_average: 1]
[reg_sqrt: 0]
[alpha: 0.9]
[fair_c: 1]
[poisson_max_delta_step: 0.7]
[tweedie_variance_power: 1.5]
[lambdarank_truncation_level: 30]
[lambdarank_norm: 1]
[label_gain: ]
[lambdarank_position_bias_regularization: 0]
[eval_at: ]
[multi_error_top_k: 1]
[auc_mu_weights: ]
[num_machines: 1]
[local_listen_port: 12400]
[time_out: 120]
[machine_list_filename: ]
[machines: ]
[gpu_platform_id: -1]
[gpu_device_id: -1]
[gpu_use_dp: 0]
[num_gpu: 1]

end of parameters

pandas_categorical:null
